digraph Tree {
node [shape=box, fontname="helvetica"] ;
edge [fontname="helvetica"] ;
0 [label="x[5] <= 6.7\ngini = 0.5\nsamples = 80000\nvalue = [40000.0, 40000.0]"] ;
1 [label="x[6] <= 210.0\ngini = 0.456\nsamples = 76867\nvalue = [40000.0, 21686.395]"] ;
0 -> 1 [labeldistance=2.5, labelangle=45, headlabel="True"] ;
2 [label="x[5] <= 5.35\ngini = 0.372\nsamples = 75405\nvalue = [40000.0, 13140.435]"] ;
1 -> 2 ;
3 [label="gini = 0.0\nsamples = 30299\nvalue = [16566.562, 0.0]"] ;
2 -> 3 ;
4 [label="x[1] <= 42.5\ngini = 0.46\nsamples = 45106\nvalue = [23433.438, 13140.435]"] ;
2 -> 4 ;
5 [label="x[4] <= 30.675\ngini = 0.193\nsamples = 23011\nvalue = [12440.095, 1513.956]"] ;
4 -> 5 ;
6 [label="x[2] <= 0.5\ngini = 0.115\nsamples = 19540\nvalue = [10618.806, 695.601]"] ;
5 -> 6 ;
7 [label="x[6] <= 113.0\ngini = 0.105\nsamples = 19396\nvalue = [10547.179, 619.611]"] ;
6 -> 7 ;
8 [label="gini = 0.0\nsamples = 5986\nvalue = [3272.961, 0.0]"] ;
7 -> 8 ;
9 [label="x[1] <= 13.5\ngini = 0.145\nsamples = 13410\nvalue = [7274.218, 619.611]"] ;
7 -> 9 ;
10 [label="x[6] <= 180.0\ngini = 0.047\nsamples = 4327\nvalue = [2360.403, 58.454]"] ;
9 -> 10 ;
11 [label="x[1] <= 11.5\ngini = 0.037\nsamples = 3868\nvalue = [2111.076, 40.918]"] ;
10 -> 11 ;
12 [label="x[5] <= 6.55\ngini = 0.025\nsamples = 3346\nvalue = [1827.303, 23.382]"] ;
11 -> 12 ;
13 [label="x[4] <= 15.385\ngini = 0.007\nsamples = 2837\nvalue = [1550.638, 5.845]"] ;
12 -> 13 ;
14 [label="x[4] <= 15.375\ngini = 0.042\nsamples = 489\nvalue = [266.823, 5.845]"] ;
13 -> 14 ;
15 [label="x[6] <= 128.0\ngini = 0.0\nsamples = 487\nvalue = [266.277, 0.0]"] ;
14 -> 15 ;
16 [label="gini = 0.0\nsamples = 52\nvalue = [28.432, 0.0]"] ;
15 -> 16 ;
17 [label="gini = 0.0\nsamples = 435\nvalue = [237.845, 0.0]"] ;
15 -> 17 ;
18 [label="x[5] <= 6.3\ngini = 0.156\nsamples = 2\nvalue = [0.547, 5.845]"] ;
14 -> 18 ;
19 [label="gini = 0.0\nsamples = 1\nvalue = [0.0, 5.845]"] ;
18 -> 19 ;
20 [label="gini = 0.0\nsamples = 1\nvalue = [0.547, 0.0]"] ;
18 -> 20 ;
21 [label="x[3] <= 0.5\ngini = 0.0\nsamples = 2348\nvalue = [1283.814, 0.0]"] ;
13 -> 21 ;
22 [label="gini = 0.0\nsamples = 2347\nvalue = [1283.267, 0.0]"] ;
21 -> 22 ;
23 [label="gini = 0.0\nsamples = 1\nvalue = [0.547, 0.0]"] ;
21 -> 23 ;
24 [label="x[6] <= 156.5\ngini = 0.112\nsamples = 509\nvalue = [276.665, 17.536]"] ;
12 -> 24 ;
25 [label="x[4] <= 16.705\ngini = 0.169\nsamples = 315\nvalue = [170.592, 17.536]"] ;
24 -> 25 ;
26 [label="gini = 0.0\nsamples = 114\nvalue = [62.332, 0.0]"] ;
25 -> 26 ;
27 [label="x[4] <= 16.72\ngini = 0.24\nsamples = 201\nvalue = [108.26, 17.536]"] ;
25 -> 27 ;
28 [label="x[1] <= 7.5\ngini = 0.156\nsamples = 2\nvalue = [0.547, 5.845]"] ;
27 -> 28 ;
29 [label="gini = 0.0\nsamples = 1\nvalue = [0.547, 0.0]"] ;
28 -> 29 ;
30 [label="gini = 0.0\nsamples = 1\nvalue = [0.0, 5.845]"] ;
28 -> 30 ;
31 [label="x[0] <= 0.5\ngini = 0.177\nsamples = 199\nvalue = [107.714, 11.691]"] ;
27 -> 31 ;
32 [label="x[1] <= 3.5\ngini = 0.338\nsamples = 80\nvalue = [42.648, 11.691]"] ;
31 -> 32 ;
33 [label="gini = 0.0\nsamples = 31\nvalue = [16.95, 0.0]"] ;
32 -> 33 ;
34 [label="x[1] <= 6.5\ngini = 0.43\nsamples = 49\nvalue = [25.698, 11.691]"] ;
32 -> 34 ;
35 [label="x[6] <= 142.5\ngini = 0.496\nsamples = 20\nvalue = [9.842, 11.691]"] ;
34 -> 35 ;
36 [label="x[4] <= 17.595\ngini = 0.461\nsamples = 14\nvalue = [6.561, 11.691]"] ;
35 -> 36 ;
37 [label="gini = 0.0\nsamples = 3\nvalue = [1.64, 0.0]"] ;
36 -> 37 ;
38 [label="x[4] <= 17.885\ngini = 0.417\nsamples = 11\nvalue = [4.921, 11.691]"] ;
36 -> 38 ;
39 [label="gini = 0.0\nsamples = 1\nvalue = [0.0, 5.845]"] ;
38 -> 39 ;
40 [label="x[4] <= 24.15\ngini = 0.496\nsamples = 10\nvalue = [4.921, 5.845]"] ;
38 -> 40 ;
41 [label="x[4] <= 18.135\ngini = 0.0\nsamples = 7\nvalue = [3.827, 0.0]"] ;
40 -> 41 ;
42 [label="gini = 0.0\nsamples = 2\nvalue = [1.094, 0.0]"] ;
41 -> 42 ;
43 [label="gini = 0.0\nsamples = 5\nvalue = [2.734, 0.0]"] ;
41 -> 43 ;
44 [label="x[1] <= 5.0\ngini = 0.266\nsamples = 3\nvalue = [1.094, 5.845]"] ;
40 -> 44 ;
45 [label="gini = 0.0\nsamples = 1\nvalue = [0.547, 0.0]"] ;
44 -> 45 ;
46 [label="gini = 0.156\nsamples = 2\nvalue = [0.547, 5.845]"] ;
44 -> 46 ;
47 [label="gini = -0.0\nsamples = 6\nvalue = [3.281, 0.0]"] ;
35 -> 47 ;
48 [label="gini = -0.0\nsamples = 29\nvalue = [15.856, 0.0]"] ;
34 -> 48 ;
49 [label="x[4] <= 16.735\ngini = 0.0\nsamples = 119\nvalue = [65.066, 0.0]"] ;
31 -> 49 ;
50 [label="gini = 0.0\nsamples = 1\nvalue = [0.547, 0.0]"] ;
49 -> 50 ;
51 [label="gini = 0.0\nsamples = 118\nvalue = [64.519, 0.0]"] ;
49 -> 51 ;
52 [label="x[0] <= 0.5\ngini = 0.0\nsamples = 194\nvalue = [106.073, 0.0]"] ;
24 -> 52 ;
53 [label="gini = 0.0\nsamples = 97\nvalue = [53.037, 0.0]"] ;
52 -> 53 ;
54 [label="gini = 0.0\nsamples = 97\nvalue = [53.037, 0.0]"] ;
52 -> 54 ;
55 [label="x[4] <= 21.16\ngini = 0.11\nsamples = 522\nvalue = [283.773, 17.536]"] ;
11 -> 55 ;
56 [label="x[4] <= 21.1\ngini = 0.21\nsamples = 240\nvalue = [129.584, 17.536]"] ;
55 -> 56 ;
57 [label="x[6] <= 142.5\ngini = 0.152\nsamples = 238\nvalue = [129.038, 11.691]"] ;
56 -> 57 ;
58 [label="x[6] <= 135.0\ngini = 0.317\nsamples = 89\nvalue = [47.569, 11.691]"] ;
57 -> 58 ;
59 [label="gini = -0.0\nsamples = 65\nvalue = [35.54, 0.0]"] ;
58 -> 59 ;
60 [label="x[4] <= 17.325\ngini = 0.5\nsamples = 24\nvalue = [12.029, 11.691]"] ;
58 -> 60 ;
61 [label="gini = 0.0\nsamples = 7\nvalue = [3.827, 0.0]"] ;
60 -> 61 ;
62 [label="x[4] <= 17.345\ngini = 0.485\nsamples = 17\nvalue = [8.202, 11.691]"] ;
60 -> 62 ;
63 [label="gini = 0.0\nsamples = 1\nvalue = [0.0, 5.845]"] ;
62 -> 63 ;
64 [label="x[5] <= 5.9\ngini = 0.486\nsamples = 16\nvalue = [8.202, 5.845]"] ;
62 -> 64 ;
65 [label="x[4] <= 19.395\ngini = 0.266\nsamples = 3\nvalue = [1.094, 5.845]"] ;
64 -> 65 ;
66 [label="x[1] <= 12.5\ngini = 0.0\nsamples = 2\nvalue = [1.094, 0.0]"] ;
65 -> 66 ;
67 [label="gini = 0.0\nsamples = 1\nvalue = [0.547, 0.0]"] ;
66 -> 67 ;
68 [label="gini = 0.0\nsamples = 1\nvalue = [0.547, 0.0]"] ;
66 -> 68 ;
69 [label="gini = 0.0\nsamples = 1\nvalue = [0.0, 5.845]"] ;
65 -> 69 ;
70 [label="x[4] <= 17.735\ngini = 0.0\nsamples = 13\nvalue = [7.108, 0.0]"] ;
64 -> 70 ;
71 [label="gini = 0.0\nsamples = 1\nvalue = [0.547, 0.0]"] ;
70 -> 71 ;
72 [label="gini = 0.0\nsamples = 12\nvalue = [6.561, 0.0]"] ;
70 -> 72 ;
73 [label="gini = -0.0\nsamples = 149\nvalue = [81.469, 0.0]"] ;
57 -> 73 ;
74 [label="x[6] <= 145.0\ngini = 0.156\nsamples = 2\nvalue = [0.547, 5.845]"] ;
56 -> 74 ;
75 [label="gini = 0.0\nsamples = 1\nvalue = [0.547, 0.0]"] ;
74 -> 75 ;
76 [label="gini = 0.0\nsamples = 1\nvalue = [0.0, 5.845]"] ;
74 -> 76 ;
77 [label="x[4] <= 21.2\ngini = 0.0\nsamples = 282\nvalue = [154.189, 0.0]"] ;
55 -> 77 ;
78 [label="gini = 0.0\nsamples = 1\nvalue = [0.547, 0.0]"] ;
77 -> 78 ;
79 [label="gini = 0.0\nsamples = 281\nvalue = [153.642, 0.0]"] ;
77 -> 79 ;
80 [label="x[5] <= 6.15\ngini = 0.123\nsamples = 459\nvalue = [249.327, 17.536]"] ;
10 -> 80 ;
81 [label="x[1] <= 4.5\ngini = 0.197\nsamples = 260\nvalue = [140.52, 17.536]"] ;
80 -> 81 ;
82 [label="x[1] <= 2.5\ngini = 0.321\nsamples = 87\nvalue = [46.475, 11.691]"] ;
81 -> 82 ;
83 [label="gini = 0.0\nsamples = 54\nvalue = [29.526, 0.0]"] ;
82 -> 83 ;
84 [label="x[5] <= 5.9\ngini = 0.483\nsamples = 33\nvalue = [16.95, 11.691]"] ;
82 -> 84 ;
85 [label="x[0] <= 0.5\ngini = 0.49\nsamples = 18\nvalue = [8.748, 11.691]"] ;
84 -> 85 ;
86 [label="gini = 0.0\nsamples = 8\nvalue = [4.374, 0.0]"] ;
85 -> 86 ;
87 [label="x[4] <= 16.83\ngini = 0.396\nsamples = 10\nvalue = [4.374, 11.691]"] ;
85 -> 87 ;
88 [label="gini = 0.0\nsamples = 3\nvalue = [1.64, 0.0]"] ;
87 -> 88 ;
89 [label="x[4] <= 17.355\ngini = 0.307\nsamples = 7\nvalue = [2.734, 11.691]"] ;
87 -> 89 ;
90 [label="gini = 0.0\nsamples = 1\nvalue = [0.0, 5.845]"] ;
89 -> 90 ;
91 [label="x[4] <= 23.365\ngini = 0.434\nsamples = 6\nvalue = [2.734, 5.845]"] ;
89 -> 91 ;
92 [label="gini = -0.0\nsamples = 4\nvalue = [2.187, 0.0]"] ;
91 -> 92 ;
93 [label="x[5] <= 5.75\ngini = 0.156\nsamples = 2\nvalue = [0.547, 5.845]"] ;
91 -> 93 ;
94 [label="gini = 0.0\nsamples = 1\nvalue = [0.0, 5.845]"] ;
93 -> 94 ;
95 [label="gini = 0.0\nsamples = 1\nvalue = [0.547, 0.0]"] ;
93 -> 95 ;
96 [label="gini = -0.0\nsamples = 15\nvalue = [8.202, 0.0]"] ;
84 -> 96 ;
97 [label="x[4] <= 16.045\ngini = 0.11\nsamples = 173\nvalue = [94.044, 5.845]"] ;
81 -> 97 ;
98 [label="x[4] <= 15.975\ngini = 0.338\nsamples = 40\nvalue = [21.324, 5.845]"] ;
97 -> 98 ;
99 [label="gini = 0.0\nsamples = 39\nvalue = [21.324, 0.0]"] ;
98 -> 99 ;
100 [label="gini = 0.0\nsamples = 1\nvalue = [0.0, 5.845]"] ;
98 -> 100 ;
101 [label="x[5] <= 5.75\ngini = 0.0\nsamples = 133\nvalue = [72.72, 0.0]"] ;
97 -> 101 ;
102 [label="gini = 0.0\nsamples = 31\nvalue = [16.95, 0.0]"] ;
101 -> 102 ;
103 [label="gini = 0.0\nsamples = 102\nvalue = [55.77, 0.0]"] ;
101 -> 103 ;
104 [label="x[1] <= 0.36\ngini = 0.0\nsamples = 199\nvalue = [108.807, 0.0]"] ;
80 -> 104 ;
105 [label="gini = 0.0\nsamples = 1\nvalue = [0.547, 0.0]"] ;
104 -> 105 ;
106 [label="gini = 0.0\nsamples = 198\nvalue = [108.26, 0.0]"] ;
104 -> 106 ;
107 [label="x[1] <= 27.5\ngini = 0.184\nsamples = 9083\nvalue = [4913.815, 561.157]"] ;
9 -> 107 ;
108 [label="x[1] <= 15.5\ngini = 0.143\nsamples = 4476\nvalue = [2428.202, 204.589]"] ;
107 -> 108 ;
109 [label="x[5] <= 6.35\ngini = 0.259\nsamples = 542\nvalue = [291.428, 52.609]"] ;
108 -> 109 ;
110 [label="x[6] <= 128.0\ngini = 0.142\nsamples = 388\nvalue = [210.506, 17.536]"] ;
109 -> 110 ;
111 [label="x[5] <= 6.05\ngini = 0.423\nsamples = 51\nvalue = [26.792, 11.691]"] ;
110 -> 111 ;
112 [label="gini = 0.0\nsamples = 29\nvalue = [15.856, 0.0]"] ;
111 -> 112 ;
113 [label="x[5] <= 6.15\ngini = 0.499\nsamples = 22\nvalue = [10.935, 11.691]"] ;
111 -> 113 ;
114 [label="x[0] <= 0.5\ngini = 0.434\nsamples = 12\nvalue = [5.468, 11.691]"] ;
113 -> 114 ;
115 [label="x[4] <= 20.57\ngini = 0.266\nsamples = 6\nvalue = [2.187, 11.691]"] ;
114 -> 115 ;
116 [label="gini = 0.0\nsamples = 2\nvalue = [1.094, 0.0]"] ;
115 -> 116 ;
117 [label="x[4] <= 26.935\ngini = 0.156\nsamples = 4\nvalue = [1.094, 11.691]"] ;
115 -> 117 ;
118 [label="x[1] <= 14.5\ngini = 0.085\nsamples = 3\nvalue = [0.547, 11.691]"] ;
117 -> 118 ;
119 [label="x[4] <= 21.23\ngini = 0.156\nsamples = 2\nvalue = [0.547, 5.845]"] ;
118 -> 119 ;
120 [label="gini = 0.0\nsamples = 1\nvalue = [0.0, 5.845]"] ;
119 -> 120 ;
121 [label="gini = 0.0\nsamples = 1\nvalue = [0.547, 0.0]"] ;
119 -> 121 ;
122 [label="gini = 0.0\nsamples = 1\nvalue = [0.0, 5.845]"] ;
118 -> 122 ;
123 [label="gini = 0.0\nsamples = 1\nvalue = [0.547, 0.0]"] ;
117 -> 123 ;
124 [label="gini = -0.0\nsamples = 6\nvalue = [3.281, 0.0]"] ;
114 -> 124 ;
125 [label="gini = -0.0\nsamples = 10\nvalue = [5.468, 0.0]"] ;
113 -> 125 ;
126 [label="x[4] <= 19.12\ngini = 0.06\nsamples = 337\nvalue = [183.714, 5.845]"] ;
110 -> 126 ;
127 [label="x[4] <= 19.06\ngini = 0.283\nsamples = 53\nvalue = [28.432, 5.845]"] ;
126 -> 127 ;
128 [label="gini = 0.0\nsamples = 52\nvalue = [28.432, 0.0]"] ;
127 -> 128 ;
129 [label="gini = 0.0\nsamples = 1\nvalue = [0.0, 5.845]"] ;
127 -> 129 ;
130 [label="x[5] <= 5.75\ngini = 0.0\nsamples = 284\nvalue = [155.282, 0.0]"] ;
126 -> 130 ;
131 [label="gini = 0.0\nsamples = 62\nvalue = [33.9, 0.0]"] ;
130 -> 131 ;
132 [label="gini = 0.0\nsamples = 222\nvalue = [121.383, 0.0]"] ;
130 -> 132 ;
133 [label="x[4] <= 24.305\ngini = 0.422\nsamples = 154\nvalue = [80.922, 35.072]"] ;
109 -> 133 ;
134 [label="x[4] <= 21.71\ngini = 0.489\nsamples = 92\nvalue = [47.022, 35.072]"] ;
133 -> 134 ;
135 [label="x[0] <= 0.5\ngini = 0.364\nsamples = 70\nvalue = [37.18, 11.691]"] ;
134 -> 135 ;
136 [label="x[5] <= 6.55\ngini = 0.486\nsamples = 32\nvalue = [16.403, 11.691]"] ;
135 -> 136 ;
137 [label="x[4] <= 19.99\ngini = 0.493\nsamples = 19\nvalue = [9.295, 11.691]"] ;
136 -> 137 ;
138 [label="x[4] <= 18.395\ngini = 0.434\nsamples = 12\nvalue = [5.468, 11.691]"] ;
137 -> 138 ;
139 [label="gini = 0.0\nsamples = 6\nvalue = [3.281, 0.0]"] ;
138 -> 139 ;
140 [label="x[6] <= 142.5\ngini = 0.266\nsamples = 6\nvalue = [2.187, 11.691]"] ;
138 -> 140 ;
141 [label="gini = 0.0\nsamples = 1\nvalue = [0.547, 0.0]"] ;
140 -> 141 ;
142 [label="x[6] <= 159.5\ngini = 0.216\nsamples = 5\nvalue = [1.64, 11.691]"] ;
140 -> 142 ;
143 [label="x[6] <= 151.5\ngini = 0.156\nsamples = 4\nvalue = [1.094, 11.691]"] ;
142 -> 143 ;
144 [label="gini = 0.0\nsamples = 1\nvalue = [0.0, 5.845]"] ;
143 -> 144 ;
145 [label="x[4] <= 18.59\ngini = 0.266\nsamples = 3\nvalue = [1.094, 5.845]"] ;
143 -> 145 ;
146 [label="gini = 0.0\nsamples = 1\nvalue = [0.0, 5.845]"] ;
145 -> 146 ;
147 [label="gini = -0.0\nsamples = 2\nvalue = [1.094, 0.0]"] ;
145 -> 147 ;
148 [label="gini = 0.0\nsamples = 1\nvalue = [0.547, 0.0]"] ;
142 -> 148 ;
149 [label="gini = -0.0\nsamples = 7\nvalue = [3.827, 0.0]"] ;
137 -> 149 ;
150 [label="gini = -0.0\nsamples = 13\nvalue = [7.108, 0.0]"] ;
136 -> 150 ;
151 [label="x[6] <= 128.0\ngini = 0.0\nsamples = 38\nvalue = [20.777, 0.0]"] ;
135 -> 151 ;
152 [label="gini = 0.0\nsamples = 5\nvalue = [2.734, 0.0]"] ;
151 -> 152 ;
153 [label="gini = 0.0\nsamples = 33\nvalue = [18.043, 0.0]"] ;
151 -> 153 ;
154 [label="x[6] <= 158.5\ngini = 0.417\nsamples = 22\nvalue = [9.842, 23.382]"] ;
134 -> 154 ;
155 [label="x[4] <= 21.92\ngini = 0.495\nsamples = 14\nvalue = [7.108, 5.845]"] ;
154 -> 155 ;
156 [label="gini = 0.0\nsamples = 1\nvalue = [0.0, 5.845]"] ;
155 -> 156 ;
157 [label="x[1] <= 14.5\ngini = 0.0\nsamples = 13\nvalue = [7.108, 0.0]"] ;
155 -> 157 ;
158 [label="gini = 0.0\nsamples = 6\nvalue = [3.281, 0.0]"] ;
157 -> 158 ;
159 [label="gini = 0.0\nsamples = 7\nvalue = [3.827, 0.0]"] ;
157 -> 159 ;
160 [label="x[0] <= 0.5\ngini = 0.233\nsamples = 8\nvalue = [2.734, 17.536]"] ;
154 -> 160 ;
161 [label="gini = 0.0\nsamples = 3\nvalue = [1.64, 0.0]"] ;
160 -> 161 ;
162 [label="x[4] <= 22.055\ngini = 0.111\nsamples = 5\nvalue = [1.094, 17.536]"] ;
160 -> 162 ;
163 [label="gini = 0.0\nsamples = 1\nvalue = [0.547, 0.0]"] ;
162 -> 163 ;
164 [label="x[1] <= 14.5\ngini = 0.059\nsamples = 4\nvalue = [0.547, 17.536]"] ;
162 -> 164 ;
165 [label="gini = 0.0\nsamples = 2\nvalue = [0.0, 11.691]"] ;
164 -> 165 ;
166 [label="x[4] <= 22.605\ngini = 0.156\nsamples = 2\nvalue = [0.547, 5.845]"] ;
164 -> 166 ;
167 [label="gini = 0.0\nsamples = 1\nvalue = [0.547, 0.0]"] ;
166 -> 167 ;
168 [label="gini = 0.0\nsamples = 1\nvalue = [0.0, 5.845]"] ;
166 -> 168 ;
169 [label="x[6] <= 128.0\ngini = 0.0\nsamples = 62\nvalue = [33.9, 0.0]"] ;
133 -> 169 ;
170 [label="gini = 0.0\nsamples = 9\nvalue = [4.921, 0.0]"] ;
169 -> 170 ;
171 [label="gini = 0.0\nsamples = 53\nvalue = [28.979, 0.0]"] ;
169 -> 171 ;
172 [label="x[4] <= 30.545\ngini = 0.124\nsamples = 3934\nvalue = [2136.774, 151.98]"] ;
108 -> 172 ;
173 [label="x[4] <= 20.525\ngini = 0.12\nsamples = 3919\nvalue = [2129.12, 146.135]"] ;
172 -> 173 ;
174 [label="gini = 0.0\nsamples = 521\nvalue = [284.867, 0.0]"] ;
173 -> 174 ;
175 [label="x[4] <= 20.535\ngini = 0.136\nsamples = 3398\nvalue = [1844.253, 146.135]"] ;
173 -> 175 ;
176 [label="x[6] <= 150.0\ngini = 0.266\nsamples = 3\nvalue = [1.094, 5.845]"] ;
175 -> 176 ;
177 [label="gini = 0.0\nsamples = 1\nvalue = [0.0, 5.845]"] ;
176 -> 177 ;
178 [label="x[0] <= 0.5\ngini = 0.0\nsamples = 2\nvalue = [1.094, 0.0]"] ;
176 -> 178 ;
179 [label="gini = 0.0\nsamples = 1\nvalue = [0.547, 0.0]"] ;
178 -> 179 ;
180 [label="gini = 0.0\nsamples = 1\nvalue = [0.547, 0.0]"] ;
178 -> 180 ;
181 [label="x[1] <= 19.5\ngini = 0.131\nsamples = 3395\nvalue = [1843.159, 140.289]"] ;
175 -> 181 ;
182 [label="x[4] <= 23.305\ngini = 0.2\nsamples = 1020\nvalue = [551.143, 70.145]"] ;
181 -> 182 ;
183 [label="x[4] <= 23.295\ngini = 0.316\nsamples = 313\nvalue = [167.311, 40.918]"] ;
182 -> 183 ;
184 [label="x[4] <= 21.375\ngini = 0.288\nsamples = 310\nvalue = [166.218, 35.072]"] ;
183 -> 184 ;
185 [label="gini = 0.0\nsamples = 92\nvalue = [50.303, 0.0]"] ;
184 -> 185 ;
186 [label="x[4] <= 21.655\ngini = 0.357\nsamples = 218\nvalue = [115.915, 35.072]"] ;
184 -> 186 ;
187 [label="x[4] <= 21.605\ngini = 0.492\nsamples = 28\nvalue = [13.669, 17.536]"] ;
186 -> 187 ;
188 [label="x[4] <= 21.385\ngini = 0.433\nsamples = 24\nvalue = [12.576, 5.845]"] ;
187 -> 188 ;
189 [label="gini = 0.0\nsamples = 1\nvalue = [0.0, 5.845]"] ;
188 -> 189 ;
190 [label="gini = -0.0\nsamples = 23\nvalue = [12.576, 0.0]"] ;
188 -> 190 ;
191 [label="x[5] <= 5.95\ngini = 0.156\nsamples = 4\nvalue = [1.094, 11.691]"] ;
187 -> 191 ;
192 [label="gini = 0.0\nsamples = 2\nvalue = [1.094, 0.0]"] ;
191 -> 192 ;
193 [label="gini = 0.0\nsamples = 2\nvalue = [0.0, 11.691]"] ;
191 -> 193 ;
194 [label="x[5] <= 6.05\ngini = 0.25\nsamples = 190\nvalue = [102.246, 17.536]"] ;
186 -> 194 ;
195 [label="gini = 0.0\nsamples = 82\nvalue = [44.835, 0.0]"] ;
194 -> 195 ;
196 [label="x[6] <= 180.0\ngini = 0.358\nsamples = 108\nvalue = [57.411, 17.536]"] ;
194 -> 196 ;
197 [label="x[6] <= 150.0\ngini = 0.296\nsamples = 99\nvalue = [53.037, 11.691]"] ;
196 -> 197 ;
198 [label="x[6] <= 128.0\ngini = 0.43\nsamples = 49\nvalue = [25.698, 11.691]"] ;
197 -> 198 ;
199 [label="gini = 0.0\nsamples = 14\nvalue = [7.655, 0.0]"] ;
198 -> 199 ;
200 [label="x[4] <= 22.05\ngini = 0.477\nsamples = 35\nvalue = [18.043, 11.691]"] ;
198 -> 200 ;
201 [label="gini = 0.0\nsamples = 11\nvalue = [6.014, 0.0]"] ;
200 -> 201 ;
202 [label="x[4] <= 22.1\ngini = 0.5\nsamples = 24\nvalue = [12.029, 11.691]"] ;
200 -> 202 ;
203 [label="gini = 0.0\nsamples = 1\nvalue = [0.0, 5.845]"] ;
202 -> 203 ;
204 [label="x[4] <= 22.895\ngini = 0.44\nsamples = 23\nvalue = [12.029, 5.845]"] ;
202 -> 204 ;
205 [label="gini = 0.0\nsamples = 17\nvalue = [9.295, 0.0]"] ;
204 -> 205 ;
206 [label="x[4] <= 22.95\ngini = 0.434\nsamples = 6\nvalue = [2.734, 5.845]"] ;
204 -> 206 ;
207 [label="gini = 0.0\nsamples = 1\nvalue = [0.0, 5.845]"] ;
206 -> 207 ;
208 [label="gini = 0.0\nsamples = 5\nvalue = [2.734, 0.0]"] ;
206 -> 208 ;
209 [label="x[4] <= 21.685\ngini = 0.0\nsamples = 50\nvalue = [27.338, 0.0]"] ;
197 -> 209 ;
210 [label="gini = 0.0\nsamples = 1\nvalue = [0.547, 0.0]"] ;
209 -> 210 ;
211 [label="gini = 0.0\nsamples = 49\nvalue = [26.792, 0.0]"] ;
209 -> 211 ;
212 [label="x[4] <= 22.6\ngini = 0.49\nsamples = 9\nvalue = [4.374, 5.845]"] ;
196 -> 212 ;
213 [label="x[1] <= 16.5\ngini = 0.0\nsamples = 6\nvalue = [3.281, 0.0]"] ;
212 -> 213 ;
214 [label="gini = 0.0\nsamples = 1\nvalue = [0.547, 0.0]"] ;
213 -> 214 ;
215 [label="gini = 0.0\nsamples = 5\nvalue = [2.734, 0.0]"] ;
213 -> 215 ;
216 [label="x[4] <= 22.855\ngini = 0.266\nsamples = 3\nvalue = [1.094, 5.845]"] ;
212 -> 216 ;
217 [label="gini = 0.0\nsamples = 1\nvalue = [0.0, 5.845]"] ;
216 -> 217 ;
218 [label="gini = -0.0\nsamples = 2\nvalue = [1.094, 0.0]"] ;
216 -> 218 ;
219 [label="x[5] <= 5.9\ngini = 0.266\nsamples = 3\nvalue = [1.094, 5.845]"] ;
183 -> 219 ;
220 [label="gini = 0.0\nsamples = 1\nvalue = [0.0, 5.845]"] ;
219 -> 220 ;
221 [label="x[0] <= 0.5\ngini = 0.0\nsamples = 2\nvalue = [1.094, 0.0]"] ;
219 -> 221 ;
222 [label="gini = 0.0\nsamples = 1\nvalue = [0.547, 0.0]"] ;
221 -> 222 ;
223 [label="gini = 0.0\nsamples = 1\nvalue = [0.547, 0.0]"] ;
221 -> 223 ;
224 [label="x[4] <= 27.485\ngini = 0.132\nsamples = 707\nvalue = [383.832, 29.227]"] ;
182 -> 224 ;
225 [label="x[1] <= 18.5\ngini = 0.066\nsamples = 611\nvalue = [332.982, 11.691]"] ;
224 -> 225 ;
226 [label="x[6] <= 128.0\ngini = 0.0\nsamples = 426\nvalue = [232.924, 0.0]"] ;
225 -> 226 ;
227 [label="gini = 0.0\nsamples = 45\nvalue = [24.605, 0.0]"] ;
226 -> 227 ;
228 [label="gini = 0.0\nsamples = 381\nvalue = [208.319, 0.0]"] ;
226 -> 228 ;
229 [label="x[6] <= 128.0\ngini = 0.187\nsamples = 185\nvalue = [100.059, 11.691]"] ;
225 -> 229 ;
230 [label="x[5] <= 6.55\ngini = 0.44\nsamples = 23\nvalue = [12.029, 5.845]"] ;
229 -> 230 ;
231 [label="gini = 0.0\nsamples = 19\nvalue = [10.389, 0.0]"] ;
230 -> 231 ;
232 [label="x[4] <= 25.96\ngini = 0.342\nsamples = 4\nvalue = [1.64, 5.845]"] ;
230 -> 232 ;
233 [label="gini = 0.0\nsamples = 1\nvalue = [0.547, 0.0]"] ;
232 -> 233 ;
234 [label="gini = 0.266\nsamples = 3\nvalue = [1.094, 5.845]"] ;
232 -> 234 ;
235 [label="x[4] <= 24.485\ngini = 0.117\nsamples = 162\nvalue = [88.03, 5.845]"] ;
229 -> 235 ;
236 [label="x[4] <= 24.445\ngini = 0.375\nsamples = 33\nvalue = [17.497, 5.845]"] ;
235 -> 236 ;
237 [label="gini = -0.0\nsamples = 32\nvalue = [17.497, 0.0]"] ;
236 -> 237 ;
238 [label="gini = 0.0\nsamples = 1\nvalue = [0.0, 5.845]"] ;
236 -> 238 ;
239 [label="x[4] <= 24.54\ngini = 0.0\nsamples = 129\nvalue = [70.533, 0.0]"] ;
235 -> 239 ;
240 [label="gini = 0.0\nsamples = 2\nvalue = [1.094, 0.0]"] ;
239 -> 240 ;
241 [label="gini = 0.0\nsamples = 127\nvalue = [69.44, 0.0]"] ;
239 -> 241 ;
242 [label="x[4] <= 27.535\ngini = 0.381\nsamples = 96\nvalue = [50.85, 17.536]"] ;
224 -> 242 ;
243 [label="gini = 0.0\nsamples = 1\nvalue = [0.0, 5.845]"] ;
242 -> 243 ;
244 [label="x[5] <= 6.15\ngini = 0.304\nsamples = 95\nvalue = [50.85, 11.691]"] ;
242 -> 244 ;
245 [label="gini = 0.0\nsamples = 53\nvalue = [28.979, 0.0]"] ;
244 -> 245 ;
246 [label="x[5] <= 6.35\ngini = 0.454\nsamples = 42\nvalue = [21.871, 11.691]"] ;
244 -> 246 ;
247 [label="x[1] <= 18.5\ngini = 0.372\nsamples = 9\nvalue = [3.827, 11.691]"] ;
246 -> 247 ;
248 [label="x[1] <= 17.5\ngini = 0.216\nsamples = 5\nvalue = [1.64, 11.691]"] ;
247 -> 248 ;
249 [label="gini = -0.0\nsamples = 3\nvalue = [1.64, 0.0]"] ;
248 -> 249 ;
250 [label="gini = 0.0\nsamples = 2\nvalue = [0.0, 11.691]"] ;
248 -> 250 ;
251 [label="x[6] <= 135.0\ngini = 0.0\nsamples = 4\nvalue = [2.187, 0.0]"] ;
247 -> 251 ;
252 [label="gini = 0.0\nsamples = 2\nvalue = [1.094, 0.0]"] ;
251 -> 252 ;
253 [label="gini = 0.0\nsamples = 2\nvalue = [1.094, 0.0]"] ;
251 -> 253 ;
254 [label="gini = -0.0\nsamples = 33\nvalue = [18.043, 0.0]"] ;
246 -> 254 ;
255 [label="x[5] <= 5.75\ngini = 0.098\nsamples = 2375\nvalue = [1292.016, 70.145]"] ;
181 -> 255 ;
256 [label="x[1] <= 24.5\ngini = 0.242\nsamples = 332\nvalue = [178.794, 29.227]"] ;
255 -> 256 ;
257 [label="x[0] <= 0.5\ngini = 0.087\nsamples = 226\nvalue = [123.023, 5.845]"] ;
256 -> 257 ;
258 [label="gini = 0.0\nsamples = 141\nvalue = [77.094, 0.0]"] ;
257 -> 258 ;
259 [label="x[1] <= 22.5\ngini = 0.2\nsamples = 85\nvalue = [45.929, 5.845]"] ;
257 -> 259 ;
260 [label="gini = -0.0\nsamples = 49\nvalue = [26.792, 0.0]"] ;
259 -> 260 ;
261 [label="x[6] <= 150.0\ngini = 0.358\nsamples = 36\nvalue = [19.137, 5.845]"] ;
259 -> 261 ;
262 [label="x[6] <= 142.5\ngini = 0.486\nsamples = 16\nvalue = [8.202, 5.845]"] ;
261 -> 262 ;
263 [label="gini = 0.0\nsamples = 13\nvalue = [7.108, 0.0]"] ;
262 -> 263 ;
264 [label="x[4] <= 25.095\ngini = 0.266\nsamples = 3\nvalue = [1.094, 5.845]"] ;
262 -> 264 ;
265 [label="gini = 0.0\nsamples = 1\nvalue = [0.547, 0.0]"] ;
264 -> 265 ;
266 [label="x[1] <= 23.5\ngini = 0.156\nsamples = 2\nvalue = [0.547, 5.845]"] ;
264 -> 266 ;
267 [label="gini = 0.0\nsamples = 1\nvalue = [0.0, 5.845]"] ;
266 -> 267 ;
268 [label="gini = 0.0\nsamples = 1\nvalue = [0.547, 0.0]"] ;
266 -> 268 ;
269 [label="gini = -0.0\nsamples = 20\nvalue = [10.935, 0.0]"] ;
261 -> 269 ;
270 [label="x[4] <= 21.785\ngini = 0.416\nsamples = 106\nvalue = [55.77, 23.382]"] ;
256 -> 270 ;
271 [label="x[1] <= 25.5\ngini = 0.266\nsamples = 3\nvalue = [1.094, 5.845]"] ;
270 -> 271 ;
272 [label="gini = 0.0\nsamples = 1\nvalue = [0.0, 5.845]"] ;
271 -> 272 ;
273 [label="gini = -0.0\nsamples = 2\nvalue = [1.094, 0.0]"] ;
271 -> 273 ;
274 [label="x[4] <= 26.57\ngini = 0.368\nsamples = 103\nvalue = [54.677, 17.536]"] ;
270 -> 274 ;
275 [label="gini = 0.0\nsamples = 37\nvalue = [20.23, 0.0]"] ;
274 -> 275 ;
276 [label="x[4] <= 26.8\ngini = 0.447\nsamples = 66\nvalue = [34.446, 17.536]"] ;
274 -> 276 ;
277 [label="gini = 0.0\nsamples = 1\nvalue = [0.0, 5.845]"] ;
276 -> 277 ;
278 [label="x[6] <= 150.0\ngini = 0.378\nsamples = 65\nvalue = [34.446, 11.691]"] ;
276 -> 278 ;
279 [label="x[1] <= 25.5\ngini = 0.483\nsamples = 33\nvalue = [16.95, 11.691]"] ;
278 -> 279 ;
280 [label="gini = 0.0\nsamples = 11\nvalue = [6.014, 0.0]"] ;
279 -> 280 ;
281 [label="x[4] <= 27.42\ngini = 0.499\nsamples = 22\nvalue = [10.935, 11.691]"] ;
279 -> 281 ;
282 [label="x[6] <= 128.0\ngini = 0.478\nsamples = 16\nvalue = [7.655, 11.691]"] ;
281 -> 282 ;
283 [label="gini = 0.0\nsamples = 2\nvalue = [1.094, 0.0]"] ;
282 -> 283 ;
284 [label="x[6] <= 135.0\ngini = 0.461\nsamples = 14\nvalue = [6.561, 11.691]"] ;
282 -> 284 ;
285 [label="x[0] <= 0.5\ngini = 0.342\nsamples = 4\nvalue = [1.64, 5.845]"] ;
284 -> 285 ;
286 [label="gini = 0.0\nsamples = 2\nvalue = [1.094, 0.0]"] ;
285 -> 286 ;
287 [label="x[1] <= 26.5\ngini = 0.156\nsamples = 2\nvalue = [0.547, 5.845]"] ;
285 -> 287 ;
288 [label="gini = 0.0\nsamples = 1\nvalue = [0.0, 5.845]"] ;
287 -> 288 ;
289 [label="gini = 0.0\nsamples = 1\nvalue = [0.547, 0.0]"] ;
287 -> 289 ;
290 [label="x[6] <= 142.5\ngini = 0.496\nsamples = 10\nvalue = [4.921, 5.845]"] ;
284 -> 290 ;
291 [label="gini = 0.0\nsamples = 5\nvalue = [2.734, 0.0]"] ;
290 -> 291 ;
292 [label="x[1] <= 26.5\ngini = 0.396\nsamples = 5\nvalue = [2.187, 5.845]"] ;
290 -> 292 ;
293 [label="x[0] <= 0.5\ngini = 0.0\nsamples = 3\nvalue = [1.64, 0.0]"] ;
292 -> 293 ;
294 [label="gini = 0.0\nsamples = 2\nvalue = [1.094, 0.0]"] ;
293 -> 294 ;
295 [label="gini = 0.0\nsamples = 1\nvalue = [0.547, 0.0]"] ;
293 -> 295 ;
296 [label="x[0] <= 0.5\ngini = 0.156\nsamples = 2\nvalue = [0.547, 5.845]"] ;
292 -> 296 ;
297 [label="gini = 0.0\nsamples = 1\nvalue = [0.0, 5.845]"] ;
296 -> 297 ;
298 [label="gini = 0.0\nsamples = 1\nvalue = [0.547, 0.0]"] ;
296 -> 298 ;
299 [label="gini = -0.0\nsamples = 6\nvalue = [3.281, 0.0]"] ;
281 -> 299 ;
300 [label="gini = 0.0\nsamples = 32\nvalue = [17.497, 0.0]"] ;
278 -> 300 ;
301 [label="x[6] <= 135.0\ngini = 0.068\nsamples = 2043\nvalue = [1113.222, 40.918]"] ;
255 -> 301 ;
302 [label="gini = 0.0\nsamples = 469\nvalue = [256.435, 0.0]"] ;
301 -> 302 ;
303 [label="x[6] <= 150.0\ngini = 0.087\nsamples = 1574\nvalue = [856.787, 40.918]"] ;
301 -> 303 ;
304 [label="x[5] <= 6.15\ngini = 0.167\nsamples = 427\nvalue = [231.283, 23.382]"] ;
303 -> 304 ;
305 [label="gini = 0.0\nsamples = 213\nvalue = [116.462, 0.0]"] ;
304 -> 305 ;
306 [label="x[4] <= 23.15\ngini = 0.281\nsamples = 214\nvalue = [114.822, 23.382]"] ;
304 -> 306 ;
307 [label="gini = 0.0\nsamples = 48\nvalue = [26.245, 0.0]"] ;
306 -> 307 ;
308 [label="x[4] <= 23.215\ngini = 0.33\nsamples = 166\nvalue = [88.577, 23.382]"] ;
306 -> 308 ;
309 [label="gini = 0.0\nsamples = 1\nvalue = [0.0, 5.845]"] ;
308 -> 309 ;
310 [label="x[1] <= 20.5\ngini = 0.276\nsamples = 165\nvalue = [88.577, 17.536]"] ;
308 -> 310 ;
311 [label="x[4] <= 24.485\ngini = 0.495\nsamples = 14\nvalue = [7.108, 5.845]"] ;
310 -> 311 ;
312 [label="x[0] <= 0.5\ngini = 0.342\nsamples = 4\nvalue = [1.64, 5.845]"] ;
311 -> 312 ;
313 [label="gini = 0.0\nsamples = 3\nvalue = [1.64, 0.0]"] ;
312 -> 313 ;
314 [label="gini = 0.0\nsamples = 1\nvalue = [0.0, 5.845]"] ;
312 -> 314 ;
315 [label="gini = -0.0\nsamples = 10\nvalue = [5.468, 0.0]"] ;
311 -> 315 ;
316 [label="x[5] <= 6.55\ngini = 0.219\nsamples = 151\nvalue = [81.469, 11.691]"] ;
310 -> 316 ;
317 [label="x[0] <= 0.5\ngini = 0.0\nsamples = 100\nvalue = [54.677, 0.0]"] ;
316 -> 317 ;
318 [label="gini = 0.0\nsamples = 58\nvalue = [31.713, 0.0]"] ;
317 -> 318 ;
319 [label="gini = 0.0\nsamples = 42\nvalue = [22.964, 0.0]"] ;
317 -> 319 ;
320 [label="x[1] <= 26.5\ngini = 0.423\nsamples = 51\nvalue = [26.792, 11.691]"] ;
316 -> 320 ;
321 [label="x[6] <= 142.5\ngini = 0.31\nsamples = 46\nvalue = [24.605, 5.845]"] ;
320 -> 321 ;
322 [label="x[1] <= 23.5\ngini = 0.461\nsamples = 20\nvalue = [10.389, 5.845]"] ;
321 -> 322 ;
323 [label="x[0] <= 0.5\ngini = 0.0\nsamples = 11\nvalue = [6.014, 0.0]"] ;
322 -> 323 ;
324 [label="gini = 0.0\nsamples = 8\nvalue = [4.374, 0.0]"] ;
323 -> 324 ;
325 [label="gini = 0.0\nsamples = 3\nvalue = [1.64, 0.0]"] ;
323 -> 325 ;
326 [label="x[0] <= 0.5\ngini = 0.49\nsamples = 9\nvalue = [4.374, 5.845]"] ;
322 -> 326 ;
327 [label="x[1] <= 24.5\ngini = 0.342\nsamples = 4\nvalue = [1.64, 5.845]"] ;
326 -> 327 ;
328 [label="gini = 0.156\nsamples = 2\nvalue = [0.547, 5.845]"] ;
327 -> 328 ;
329 [label="x[1] <= 25.5\ngini = 0.0\nsamples = 2\nvalue = [1.094, 0.0]"] ;
327 -> 329 ;
330 [label="gini = 0.0\nsamples = 1\nvalue = [0.547, 0.0]"] ;
329 -> 330 ;
331 [label="gini = 0.0\nsamples = 1\nvalue = [0.547, 0.0]"] ;
329 -> 331 ;
332 [label="x[4] <= 23.995\ngini = 0.0\nsamples = 5\nvalue = [2.734, 0.0]"] ;
326 -> 332 ;
333 [label="gini = 0.0\nsamples = 1\nvalue = [0.547, 0.0]"] ;
332 -> 333 ;
334 [label="gini = 0.0\nsamples = 4\nvalue = [2.187, 0.0]"] ;
332 -> 334 ;
335 [label="gini = -0.0\nsamples = 26\nvalue = [14.216, 0.0]"] ;
321 -> 335 ;
336 [label="x[0] <= 0.5\ngini = 0.396\nsamples = 5\nvalue = [2.187, 5.845]"] ;
320 -> 336 ;
337 [label="gini = -0.0\nsamples = 3\nvalue = [1.64, 0.0]"] ;
336 -> 337 ;
338 [label="x[6] <= 142.5\ngini = 0.156\nsamples = 2\nvalue = [0.547, 5.845]"] ;
336 -> 338 ;
339 [label="gini = 0.0\nsamples = 1\nvalue = [0.547, 0.0]"] ;
338 -> 339 ;
340 [label="gini = 0.0\nsamples = 1\nvalue = [0.0, 5.845]"] ;
338 -> 340 ;
341 [label="x[4] <= 25.055\ngini = 0.053\nsamples = 1147\nvalue = [625.504, 17.536]"] ;
303 -> 341 ;
342 [label="gini = 0.0\nsamples = 414\nvalue = [226.362, 0.0]"] ;
341 -> 342 ;
343 [label="x[4] <= 25.075\ngini = 0.081\nsamples = 733\nvalue = [399.142, 17.536]"] ;
341 -> 343 ;
344 [label="gini = 0.0\nsamples = 1\nvalue = [0.0, 5.845]"] ;
343 -> 344 ;
345 [label="x[6] <= 156.5\ngini = 0.055\nsamples = 732\nvalue = [399.142, 11.691]"] ;
343 -> 345 ;
346 [label="x[0] <= 0.5\ngini = 0.129\nsamples = 144\nvalue = [78.188, 5.845]"] ;
345 -> 346 ;
347 [label="gini = 0.0\nsamples = 94\nvalue = [51.396, 0.0]"] ;
346 -> 347 ;
348 [label="x[1] <= 24.5\ngini = 0.294\nsamples = 50\nvalue = [26.792, 5.845]"] ;
346 -> 348 ;
349 [label="gini = -0.0\nsamples = 32\nvalue = [17.497, 0.0]"] ;
348 -> 349 ;
350 [label="x[1] <= 25.5\ngini = 0.474\nsamples = 18\nvalue = [9.295, 5.845]"] ;
348 -> 350 ;
351 [label="x[5] <= 6.15\ngini = 0.396\nsamples = 5\nvalue = [2.187, 5.845]"] ;
350 -> 351 ;
352 [label="gini = -0.0\nsamples = 3\nvalue = [1.64, 0.0]"] ;
351 -> 352 ;
353 [label="x[4] <= 26.61\ngini = 0.156\nsamples = 2\nvalue = [0.547, 5.845]"] ;
351 -> 353 ;
354 [label="gini = 0.0\nsamples = 1\nvalue = [0.547, 0.0]"] ;
353 -> 354 ;
355 [label="gini = 0.0\nsamples = 1\nvalue = [0.0, 5.845]"] ;
353 -> 355 ;
356 [label="x[5] <= 5.9\ngini = 0.0\nsamples = 13\nvalue = [7.108, 0.0]"] ;
350 -> 356 ;
357 [label="gini = 0.0\nsamples = 2\nvalue = [1.094, 0.0]"] ;
356 -> 357 ;
358 [label="gini = 0.0\nsamples = 11\nvalue = [6.014, 0.0]"] ;
356 -> 358 ;
359 [label="x[5] <= 6.05\ngini = 0.035\nsamples = 588\nvalue = [320.954, 5.845]"] ;
345 -> 359 ;
360 [label="x[1] <= 22.5\ngini = 0.106\nsamples = 181\nvalue = [98.418, 5.845]"] ;
359 -> 360 ;
361 [label="x[1] <= 21.5\ngini = 0.232\nsamples = 70\nvalue = [37.727, 5.845]"] ;
360 -> 361 ;
362 [label="gini = 0.0\nsamples = 47\nvalue = [25.698, 0.0]"] ;
361 -> 362 ;
363 [label="x[6] <= 159.5\ngini = 0.44\nsamples = 23\nvalue = [12.029, 5.845]"] ;
361 -> 363 ;
364 [label="gini = 0.0\nsamples = 10\nvalue = [5.468, 0.0]"] ;
363 -> 364 ;
365 [label="x[6] <= 180.0\ngini = 0.498\nsamples = 13\nvalue = [6.561, 5.845]"] ;
363 -> 365 ;
366 [label="x[5] <= 5.9\ngini = 0.434\nsamples = 6\nvalue = [2.734, 5.845]"] ;
365 -> 366 ;
367 [label="gini = 0.0\nsamples = 2\nvalue = [1.094, 0.0]"] ;
366 -> 367 ;
368 [label="x[4] <= 28.065\ngini = 0.342\nsamples = 4\nvalue = [1.64, 5.845]"] ;
366 -> 368 ;
369 [label="x[0] <= 0.5\ngini = 0.266\nsamples = 3\nvalue = [1.094, 5.845]"] ;
368 -> 369 ;
370 [label="gini = 0.156\nsamples = 2\nvalue = [0.547, 5.845]"] ;
369 -> 370 ;
371 [label="gini = 0.0\nsamples = 1\nvalue = [0.547, 0.0]"] ;
369 -> 371 ;
372 [label="gini = 0.0\nsamples = 1\nvalue = [0.547, 0.0]"] ;
368 -> 372 ;
373 [label="x[0] <= 0.5\ngini = 0.0\nsamples = 7\nvalue = [3.827, 0.0]"] ;
365 -> 373 ;
374 [label="gini = 0.0\nsamples = 5\nvalue = [2.734, 0.0]"] ;
373 -> 374 ;
375 [label="gini = 0.0\nsamples = 2\nvalue = [1.094, 0.0]"] ;
373 -> 375 ;
376 [label="x[6] <= 158.5\ngini = 0.0\nsamples = 111\nvalue = [60.691, 0.0]"] ;
360 -> 376 ;
377 [label="gini = 0.0\nsamples = 24\nvalue = [13.122, 0.0]"] ;
376 -> 377 ;
378 [label="gini = 0.0\nsamples = 87\nvalue = [47.569, 0.0]"] ;
376 -> 378 ;
379 [label="x[0] <= 0.5\ngini = 0.0\nsamples = 407\nvalue = [222.535, 0.0]"] ;
359 -> 379 ;
380 [label="gini = 0.0\nsamples = 247\nvalue = [135.052, 0.0]"] ;
379 -> 380 ;
381 [label="gini = 0.0\nsamples = 160\nvalue = [87.483, 0.0]"] ;
379 -> 381 ;
382 [label="x[4] <= 30.565\ngini = 0.491\nsamples = 15\nvalue = [7.655, 5.845]"] ;
172 -> 382 ;
383 [label="gini = 0.0\nsamples = 1\nvalue = [0.0, 5.845]"] ;
382 -> 383 ;
384 [label="gini = -0.0\nsamples = 14\nvalue = [7.655, 0.0]"] ;
382 -> 384 ;
385 [label="x[4] <= 14.115\ngini = 0.219\nsamples = 4607\nvalue = [2485.613, 356.569]"] ;
107 -> 385 ;
386 [label="x[1] <= 30.5\ngini = 0.156\nsamples = 2\nvalue = [0.547, 5.845]"] ;
385 -> 386 ;
387 [label="gini = 0.0\nsamples = 1\nvalue = [0.547, 0.0]"] ;
386 -> 387 ;
388 [label="gini = 0.0\nsamples = 1\nvalue = [0.0, 5.845]"] ;
386 -> 388 ;
389 [label="x[0] <= 0.5\ngini = 0.217\nsamples = 4605\nvalue = [2485.066, 350.723]"] ;
385 -> 389 ;
390 [label="x[3] <= 0.5\ngini = 0.176\nsamples = 2894\nvalue = [1566.494, 169.516]"] ;
389 -> 390 ;
391 [label="x[4] <= 23.9\ngini = 0.171\nsamples = 2890\nvalue = [1564.854, 163.671]"] ;
390 -> 391 ;
392 [label="x[1] <= 28.5\ngini = 0.07\nsamples = 849\nvalue = [462.567, 17.536]"] ;
391 -> 392 ;
393 [label="x[6] <= 142.5\ngini = 0.31\nsamples = 92\nvalue = [49.209, 11.691]"] ;
392 -> 393 ;
394 [label="x[4] <= 21.12\ngini = 0.491\nsamples = 30\nvalue = [15.31, 11.691]"] ;
393 -> 394 ;
395 [label="gini = 0.0\nsamples = 14\nvalue = [7.655, 0.0]"] ;
394 -> 395 ;
396 [label="x[4] <= 22.275\ngini = 0.478\nsamples = 16\nvalue = [7.655, 11.691]"] ;
394 -> 396 ;
397 [label="x[5] <= 5.95\ngini = 0.216\nsamples = 5\nvalue = [1.64, 11.691]"] ;
396 -> 397 ;
398 [label="gini = 0.0\nsamples = 1\nvalue = [0.547, 0.0]"] ;
397 -> 398 ;
399 [label="x[5] <= 6.35\ngini = 0.156\nsamples = 4\nvalue = [1.094, 11.691]"] ;
397 -> 399 ;
400 [label="x[6] <= 128.0\ngini = 0.085\nsamples = 3\nvalue = [0.547, 11.691]"] ;
399 -> 400 ;
401 [label="gini = 0.0\nsamples = 1\nvalue = [0.0, 5.845]"] ;
400 -> 401 ;
402 [label="x[4] <= 21.93\ngini = 0.156\nsamples = 2\nvalue = [0.547, 5.845]"] ;
400 -> 402 ;
403 [label="gini = 0.0\nsamples = 1\nvalue = [0.547, 0.0]"] ;
402 -> 403 ;
404 [label="gini = 0.0\nsamples = 1\nvalue = [0.0, 5.845]"] ;
402 -> 404 ;
405 [label="gini = 0.0\nsamples = 1\nvalue = [0.547, 0.0]"] ;
399 -> 405 ;
406 [label="gini = -0.0\nsamples = 11\nvalue = [6.014, 0.0]"] ;
396 -> 406 ;
407 [label="x[4] <= 17.675\ngini = 0.0\nsamples = 62\nvalue = [33.9, 0.0]"] ;
393 -> 407 ;
408 [label="gini = 0.0\nsamples = 1\nvalue = [0.547, 0.0]"] ;
407 -> 408 ;
409 [label="gini = 0.0\nsamples = 61\nvalue = [33.353, 0.0]"] ;
407 -> 409 ;
410 [label="x[4] <= 17.62\ngini = 0.027\nsamples = 757\nvalue = [413.358, 5.845]"] ;
392 -> 410 ;
411 [label="x[4] <= 17.6\ngini = 0.454\nsamples = 21\nvalue = [10.935, 5.845]"] ;
410 -> 411 ;
412 [label="gini = -0.0\nsamples = 19\nvalue = [10.389, 0.0]"] ;
411 -> 412 ;
413 [label="x[1] <= 34.0\ngini = 0.156\nsamples = 2\nvalue = [0.547, 5.845]"] ;
411 -> 413 ;
414 [label="gini = 0.0\nsamples = 1\nvalue = [0.547, 0.0]"] ;
413 -> 414 ;
415 [label="gini = 0.0\nsamples = 1\nvalue = [0.0, 5.845]"] ;
413 -> 415 ;
416 [label="gini = 0.0\nsamples = 736\nvalue = [402.422, 0.0]"] ;
410 -> 416 ;
417 [label="x[4] <= 23.915\ngini = 0.207\nsamples = 2041\nvalue = [1102.287, 146.135]"] ;
391 -> 417 ;
418 [label="x[6] <= 159.5\ngini = 0.266\nsamples = 3\nvalue = [1.094, 5.845]"] ;
417 -> 418 ;
419 [label="gini = 0.0\nsamples = 1\nvalue = [0.0, 5.845]"] ;
418 -> 419 ;
420 [label="x[1] <= 39.0\ngini = 0.0\nsamples = 2\nvalue = [1.094, 0.0]"] ;
418 -> 420 ;
421 [label="gini = 0.0\nsamples = 1\nvalue = [0.547, 0.0]"] ;
420 -> 421 ;
422 [label="gini = 0.0\nsamples = 1\nvalue = [0.547, 0.0]"] ;
420 -> 422 ;
423 [label="x[6] <= 128.0\ngini = 0.2\nsamples = 2038\nvalue = [1101.193, 140.289]"] ;
417 -> 423 ;
424 [label="x[1] <= 30.5\ngini = 0.345\nsamples = 231\nvalue = [123.023, 35.072]"] ;
423 -> 424 ;
425 [label="x[4] <= 25.645\ngini = 0.496\nsamples = 55\nvalue = [27.885, 23.382]"] ;
424 -> 425 ;
426 [label="x[4] <= 25.05\ngini = 0.342\nsamples = 8\nvalue = [3.281, 11.691]"] ;
425 -> 426 ;
427 [label="gini = 0.0\nsamples = 3\nvalue = [1.64, 0.0]"] ;
426 -> 427 ;
428 [label="x[5] <= 6.4\ngini = 0.216\nsamples = 5\nvalue = [1.64, 11.691]"] ;
426 -> 428 ;
429 [label="x[4] <= 25.23\ngini = 0.085\nsamples = 3\nvalue = [0.547, 11.691]"] ;
428 -> 429 ;
430 [label="gini = 0.0\nsamples = 1\nvalue = [0.0, 5.845]"] ;
429 -> 430 ;
431 [label="x[4] <= 25.45\ngini = 0.156\nsamples = 2\nvalue = [0.547, 5.845]"] ;
429 -> 431 ;
432 [label="gini = 0.0\nsamples = 1\nvalue = [0.547, 0.0]"] ;
431 -> 432 ;
433 [label="gini = 0.0\nsamples = 1\nvalue = [0.0, 5.845]"] ;
431 -> 433 ;
434 [label="x[4] <= 25.31\ngini = 0.0\nsamples = 2\nvalue = [1.094, 0.0]"] ;
428 -> 434 ;
435 [label="gini = 0.0\nsamples = 1\nvalue = [0.547, 0.0]"] ;
434 -> 435 ;
436 [label="gini = 0.0\nsamples = 1\nvalue = [0.547, 0.0]"] ;
434 -> 436 ;
437 [label="x[5] <= 6.15\ngini = 0.437\nsamples = 47\nvalue = [24.605, 11.691]"] ;
425 -> 437 ;
438 [label="x[1] <= 29.5\ngini = 0.499\nsamples = 25\nvalue = [12.576, 11.691]"] ;
437 -> 438 ;
439 [label="x[1] <= 28.5\ngini = 0.478\nsamples = 16\nvalue = [7.655, 11.691]"] ;
438 -> 439 ;
440 [label="gini = 0.0\nsamples = 8\nvalue = [4.374, 0.0]"] ;
439 -> 440 ;
441 [label="x[5] <= 5.75\ngini = 0.342\nsamples = 8\nvalue = [3.281, 11.691]"] ;
439 -> 441 ;
442 [label="gini = 0.0\nsamples = 2\nvalue = [1.094, 0.0]"] ;
441 -> 442 ;
443 [label="x[4] <= 27.93\ngini = 0.266\nsamples = 6\nvalue = [2.187, 11.691]"] ;
441 -> 443 ;
444 [label="x[5] <= 6.05\ngini = 0.216\nsamples = 5\nvalue = [1.64, 11.691]"] ;
443 -> 444 ;
445 [label="x[5] <= 5.9\ngini = 0.342\nsamples = 4\nvalue = [1.64, 5.845]"] ;
444 -> 445 ;
446 [label="gini = 0.156\nsamples = 2\nvalue = [0.547, 5.845]"] ;
445 -> 446 ;
447 [label="gini = 0.0\nsamples = 2\nvalue = [1.094, 0.0]"] ;
445 -> 447 ;
448 [label="gini = 0.0\nsamples = 1\nvalue = [0.0, 5.845]"] ;
444 -> 448 ;
449 [label="gini = 0.0\nsamples = 1\nvalue = [0.547, 0.0]"] ;
443 -> 449 ;
450 [label="gini = -0.0\nsamples = 9\nvalue = [4.921, 0.0]"] ;
438 -> 450 ;
451 [label="gini = -0.0\nsamples = 22\nvalue = [12.029, 0.0]"] ;
437 -> 451 ;
452 [label="x[4] <= 29.685\ngini = 0.195\nsamples = 176\nvalue = [95.138, 11.691]"] ;
424 -> 452 ;
453 [label="x[1] <= 37.5\ngini = 0.119\nsamples = 159\nvalue = [86.39, 5.845]"] ;
452 -> 453 ;
454 [label="gini = -0.0\nsamples = 95\nvalue = [51.943, 0.0]"] ;
453 -> 454 ;
455 [label="x[1] <= 38.5\ngini = 0.248\nsamples = 64\nvalue = [34.446, 5.845]"] ;
453 -> 455 ;
456 [label="x[5] <= 6.05\ngini = 0.474\nsamples = 18\nvalue = [9.295, 5.845]"] ;
455 -> 456 ;
457 [label="gini = 0.0\nsamples = 8\nvalue = [4.374, 0.0]"] ;
456 -> 457 ;
458 [label="x[5] <= 6.15\ngini = 0.496\nsamples = 10\nvalue = [4.921, 5.845]"] ;
456 -> 458 ;
459 [label="x[4] <= 25.96\ngini = 0.342\nsamples = 4\nvalue = [1.64, 5.845]"] ;
458 -> 459 ;
460 [label="gini = 0.0\nsamples = 1\nvalue = [0.547, 0.0]"] ;
459 -> 460 ;
461 [label="x[4] <= 28.435\ngini = 0.266\nsamples = 3\nvalue = [1.094, 5.845]"] ;
459 -> 461 ;
462 [label="gini = 0.156\nsamples = 2\nvalue = [0.547, 5.845]"] ;
461 -> 462 ;
463 [label="gini = 0.0\nsamples = 1\nvalue = [0.547, 0.0]"] ;
461 -> 463 ;
464 [label="x[4] <= 27.815\ngini = 0.0\nsamples = 6\nvalue = [3.281, 0.0]"] ;
458 -> 464 ;
465 [label="gini = 0.0\nsamples = 4\nvalue = [2.187, 0.0]"] ;
464 -> 465 ;
466 [label="gini = 0.0\nsamples = 2\nvalue = [1.094, 0.0]"] ;
464 -> 466 ;
467 [label="gini = -0.0\nsamples = 46\nvalue = [25.151, 0.0]"] ;
455 -> 467 ;
468 [label="x[4] <= 29.84\ngini = 0.48\nsamples = 17\nvalue = [8.748, 5.845]"] ;
452 -> 468 ;
469 [label="gini = 0.0\nsamples = 1\nvalue = [0.0, 5.845]"] ;
468 -> 469 ;
470 [label="x[5] <= 5.75\ngini = 0.0\nsamples = 16\nvalue = [8.748, 0.0]"] ;
468 -> 470 ;
471 [label="gini = 0.0\nsamples = 1\nvalue = [0.547, 0.0]"] ;
470 -> 471 ;
472 [label="gini = 0.0\nsamples = 15\nvalue = [8.202, 0.0]"] ;
470 -> 472 ;
473 [label="x[1] <= 38.5\ngini = 0.175\nsamples = 1807\nvalue = [978.17, 105.217]"] ;
423 -> 473 ;
474 [label="x[4] <= 24.64\ngini = 0.136\nsamples = 1356\nvalue = [735.951, 58.454]"] ;
473 -> 474 ;
475 [label="x[4] <= 24.625\ngini = 0.304\nsamples = 95\nvalue = [50.85, 11.691]"] ;
474 -> 475 ;
476 [label="x[6] <= 142.5\ngini = 0.187\nsamples = 93\nvalue = [50.303, 5.845]"] ;
475 -> 476 ;
477 [label="x[5] <= 6.35\ngini = 0.48\nsamples = 17\nvalue = [8.748, 5.845]"] ;
476 -> 477 ;
478 [label="x[4] <= 23.94\ngini = 0.0\nsamples = 15\nvalue = [8.202, 0.0]"] ;
477 -> 478 ;
479 [label="gini = 0.0\nsamples = 1\nvalue = [0.547, 0.0]"] ;
478 -> 479 ;
480 [label="gini = 0.0\nsamples = 14\nvalue = [7.655, 0.0]"] ;
478 -> 480 ;
481 [label="x[6] <= 135.0\ngini = 0.156\nsamples = 2\nvalue = [0.547, 5.845]"] ;
477 -> 481 ;
482 [label="gini = 0.0\nsamples = 1\nvalue = [0.547, 0.0]"] ;
481 -> 482 ;
483 [label="gini = 0.0\nsamples = 1\nvalue = [0.0, 5.845]"] ;
481 -> 483 ;
484 [label="gini = -0.0\nsamples = 76\nvalue = [41.554, 0.0]"] ;
476 -> 484 ;
485 [label="x[1] <= 32.5\ngini = 0.156\nsamples = 2\nvalue = [0.547, 5.845]"] ;
475 -> 485 ;
486 [label="gini = 0.0\nsamples = 1\nvalue = [0.547, 0.0]"] ;
485 -> 486 ;
487 [label="gini = 0.0\nsamples = 1\nvalue = [0.0, 5.845]"] ;
485 -> 487 ;
488 [label="x[4] <= 27.315\ngini = 0.12\nsamples = 1261\nvalue = [685.102, 46.763]"] ;
474 -> 488 ;
489 [label="gini = 0.0\nsamples = 314\nvalue = [171.686, 0.0]"] ;
488 -> 489 ;
490 [label="x[6] <= 158.5\ngini = 0.153\nsamples = 947\nvalue = [513.416, 46.763]"] ;
488 -> 490 ;
491 [label="x[1] <= 28.5\ngini = 0.097\nsamples = 597\nvalue = [324.781, 17.536]"] ;
490 -> 491 ;
492 [label="x[5] <= 6.05\ngini = 0.39\nsamples = 61\nvalue = [32.259, 11.691]"] ;
491 -> 492 ;
493 [label="x[6] <= 150.0\ngini = 0.495\nsamples = 28\nvalue = [14.216, 11.691]"] ;
492 -> 493 ;
494 [label="x[5] <= 5.75\ngini = 0.461\nsamples = 14\nvalue = [6.561, 11.691]"] ;
493 -> 494 ;
495 [label="gini = 0.0\nsamples = 6\nvalue = [3.281, 0.0]"] ;
494 -> 495 ;
496 [label="x[6] <= 135.0\ngini = 0.342\nsamples = 8\nvalue = [3.281, 11.691]"] ;
494 -> 496 ;
497 [label="gini = 0.0\nsamples = 2\nvalue = [1.094, 0.0]"] ;
496 -> 497 ;
498 [label="x[5] <= 5.9\ngini = 0.266\nsamples = 6\nvalue = [2.187, 11.691]"] ;
496 -> 498 ;
499 [label="gini = 0.0\nsamples = 1\nvalue = [0.0, 5.845]"] ;
498 -> 499 ;
500 [label="x[6] <= 142.5\ngini = 0.396\nsamples = 5\nvalue = [2.187, 5.845]"] ;
498 -> 500 ;
501 [label="gini = 0.266\nsamples = 3\nvalue = [1.094, 5.845]"] ;
500 -> 501 ;
502 [label="gini = 0.0\nsamples = 2\nvalue = [1.094, 0.0]"] ;
500 -> 502 ;
503 [label="gini = -0.0\nsamples = 14\nvalue = [7.655, 0.0]"] ;
493 -> 503 ;
504 [label="x[4] <= 27.415\ngini = 0.0\nsamples = 33\nvalue = [18.043, 0.0]"] ;
492 -> 504 ;
505 [label="gini = 0.0\nsamples = 21\nvalue = [11.482, 0.0]"] ;
504 -> 505 ;
506 [label="gini = 0.0\nsamples = 12\nvalue = [6.561, 0.0]"] ;
504 -> 506 ;
507 [label="x[4] <= 28.785\ngini = 0.038\nsamples = 536\nvalue = [292.522, 5.845]"] ;
491 -> 507 ;
508 [label="x[6] <= 135.0\ngini = 0.0\nsamples = 452\nvalue = [247.14, 0.0]"] ;
507 -> 508 ;
509 [label="gini = 0.0\nsamples = 90\nvalue = [49.209, 0.0]"] ;
508 -> 509 ;
510 [label="gini = 0.0\nsamples = 362\nvalue = [197.93, 0.0]"] ;
508 -> 510 ;
511 [label="x[4] <= 28.805\ngini = 0.202\nsamples = 84\nvalue = [45.382, 5.845]"] ;
507 -> 511 ;
512 [label="gini = 0.0\nsamples = 1\nvalue = [0.0, 5.845]"] ;
511 -> 512 ;
513 [label="gini = 0.0\nsamples = 83\nvalue = [45.382, 0.0]"] ;
511 -> 513 ;
514 [label="x[1] <= 30.5\ngini = 0.232\nsamples = 350\nvalue = [188.635, 29.227]"] ;
490 -> 514 ;
515 [label="gini = 0.0\nsamples = 105\nvalue = [57.411, 0.0]"] ;
514 -> 515 ;
516 [label="x[1] <= 36.5\ngini = 0.298\nsamples = 245\nvalue = [131.225, 29.227]"] ;
514 -> 516 ;
517 [label="x[4] <= 29.47\ngini = 0.351\nsamples = 187\nvalue = [99.512, 29.227]"] ;
516 -> 517 ;
518 [label="x[1] <= 34.5\ngini = 0.323\nsamples = 172\nvalue = [91.857, 23.382]"] ;
517 -> 518 ;
519 [label="x[5] <= 6.15\ngini = 0.402\nsamples = 115\nvalue = [60.691, 23.382]"] ;
518 -> 519 ;
520 [label="x[5] <= 5.75\ngini = 0.235\nsamples = 69\nvalue = [37.18, 5.845]"] ;
519 -> 520 ;
521 [label="x[6] <= 159.5\ngini = 0.48\nsamples = 17\nvalue = [8.748, 5.845]"] ;
520 -> 521 ;
522 [label="x[4] <= 27.49\ngini = 0.478\nsamples = 8\nvalue = [3.827, 5.845]"] ;
521 -> 522 ;
523 [label="x[1] <= 31.5\ngini = 0.266\nsamples = 3\nvalue = [1.094, 5.845]"] ;
522 -> 523 ;
524 [label="gini = 0.0\nsamples = 1\nvalue = [0.547, 0.0]"] ;
523 -> 524 ;
525 [label="x[1] <= 32.5\ngini = 0.156\nsamples = 2\nvalue = [0.547, 5.845]"] ;
523 -> 525 ;
526 [label="gini = 0.0\nsamples = 1\nvalue = [0.0, 5.845]"] ;
525 -> 526 ;
527 [label="gini = 0.0\nsamples = 1\nvalue = [0.547, 0.0]"] ;
525 -> 527 ;
528 [label="x[4] <= 27.695\ngini = 0.0\nsamples = 5\nvalue = [2.734, 0.0]"] ;
522 -> 528 ;
529 [label="gini = 0.0\nsamples = 1\nvalue = [0.547, 0.0]"] ;
528 -> 529 ;
530 [label="gini = 0.0\nsamples = 4\nvalue = [2.187, 0.0]"] ;
528 -> 530 ;
531 [label="x[1] <= 31.5\ngini = 0.0\nsamples = 9\nvalue = [4.921, 0.0]"] ;
521 -> 531 ;
532 [label="gini = 0.0\nsamples = 1\nvalue = [0.547, 0.0]"] ;
531 -> 532 ;
533 [label="gini = 0.0\nsamples = 8\nvalue = [4.374, 0.0]"] ;
531 -> 533 ;
534 [label="gini = -0.0\nsamples = 52\nvalue = [28.432, 0.0]"] ;
520 -> 534 ;
535 [label="x[1] <= 33.5\ngini = 0.489\nsamples = 46\nvalue = [23.511, 17.536]"] ;
519 -> 535 ;
536 [label="x[5] <= 6.35\ngini = 0.358\nsamples = 36\nvalue = [19.137, 5.845]"] ;
535 -> 536 ;
537 [label="x[6] <= 180.0\ngini = 0.495\nsamples = 14\nvalue = [7.108, 5.845]"] ;
536 -> 537 ;
538 [label="x[1] <= 31.5\ngini = 0.0\nsamples = 9\nvalue = [4.921, 0.0]"] ;
537 -> 538 ;
539 [label="gini = 0.0\nsamples = 3\nvalue = [1.64, 0.0]"] ;
538 -> 539 ;
540 [label="gini = 0.0\nsamples = 6\nvalue = [3.281, 0.0]"] ;
538 -> 540 ;
541 [label="x[4] <= 27.41\ngini = 0.396\nsamples = 5\nvalue = [2.187, 5.845]"] ;
537 -> 541 ;
542 [label="gini = 0.266\nsamples = 3\nvalue = [1.094, 5.845]"] ;
541 -> 542 ;
543 [label="x[4] <= 28.015\ngini = 0.0\nsamples = 2\nvalue = [1.094, 0.0]"] ;
541 -> 543 ;
544 [label="gini = 0.0\nsamples = 1\nvalue = [0.547, 0.0]"] ;
543 -> 544 ;
545 [label="gini = 0.0\nsamples = 1\nvalue = [0.547, 0.0]"] ;
543 -> 545 ;
546 [label="gini = -0.0\nsamples = 22\nvalue = [12.029, 0.0]"] ;
536 -> 546 ;
547 [label="x[6] <= 180.0\ngini = 0.396\nsamples = 10\nvalue = [4.374, 11.691]"] ;
535 -> 547 ;
548 [label="x[6] <= 159.5\ngini = 0.266\nsamples = 6\nvalue = [2.187, 11.691]"] ;
547 -> 548 ;
549 [label="gini = 0.0\nsamples = 3\nvalue = [1.64, 0.0]"] ;
548 -> 549 ;
550 [label="x[5] <= 6.35\ngini = 0.085\nsamples = 3\nvalue = [0.547, 11.691]"] ;
548 -> 550 ;
551 [label="gini = 0.0\nsamples = 1\nvalue = [0.547, 0.0]"] ;
550 -> 551 ;
552 [label="gini = 0.0\nsamples = 2\nvalue = [0.0, 11.691]"] ;
550 -> 552 ;
553 [label="x[5] <= 6.35\ngini = 0.0\nsamples = 4\nvalue = [2.187, 0.0]"] ;
547 -> 553 ;
554 [label="gini = 0.0\nsamples = 2\nvalue = [1.094, 0.0]"] ;
553 -> 554 ;
555 [label="gini = 0.0\nsamples = 2\nvalue = [1.094, 0.0]"] ;
553 -> 555 ;
556 [label="x[5] <= 5.75\ngini = 0.0\nsamples = 57\nvalue = [31.166, 0.0]"] ;
518 -> 556 ;
557 [label="gini = 0.0\nsamples = 8\nvalue = [4.374, 0.0]"] ;
556 -> 557 ;
558 [label="gini = 0.0\nsamples = 49\nvalue = [26.792, 0.0]"] ;
556 -> 558 ;
559 [label="x[4] <= 29.565\ngini = 0.491\nsamples = 15\nvalue = [7.655, 5.845]"] ;
517 -> 559 ;
560 [label="gini = 0.0\nsamples = 1\nvalue = [0.0, 5.845]"] ;
559 -> 560 ;
561 [label="gini = 0.0\nsamples = 14\nvalue = [7.655, 0.0]"] ;
559 -> 561 ;
562 [label="gini = -0.0\nsamples = 58\nvalue = [31.713, 0.0]"] ;
516 -> 562 ;
563 [label="x[6] <= 156.5\ngini = 0.271\nsamples = 451\nvalue = [242.219, 46.763]"] ;
473 -> 563 ;
564 [label="x[4] <= 27.03\ngini = 0.381\nsamples = 224\nvalue = [118.649, 40.918]"] ;
563 -> 564 ;
565 [label="gini = 0.0\nsamples = 62\nvalue = [33.9, 0.0]"] ;
564 -> 565 ;
566 [label="x[4] <= 27.11\ngini = 0.439\nsamples = 162\nvalue = [84.749, 40.918]"] ;
564 -> 566 ;
567 [label="gini = 0.0\nsamples = 1\nvalue = [0.0, 5.845]"] ;
566 -> 567 ;
568 [label="x[4] <= 28.035\ngini = 0.414\nsamples = 161\nvalue = [84.749, 35.072]"] ;
566 -> 568 ;
569 [label="x[4] <= 27.73\ngini = 0.451\nsamples = 129\nvalue = [67.253, 35.072]"] ;
568 -> 569 ;
570 [label="x[5] <= 6.15\ngini = 0.384\nsamples = 126\nvalue = [66.706, 23.382]"] ;
569 -> 570 ;
571 [label="x[6] <= 150.0\ngini = 0.225\nsamples = 73\nvalue = [39.367, 5.845]"] ;
570 -> 571 ;
572 [label="gini = -0.0\nsamples = 59\nvalue = [32.259, 0.0]"] ;
571 -> 572 ;
573 [label="x[1] <= 40.5\ngini = 0.495\nsamples = 14\nvalue = [7.108, 5.845]"] ;
571 -> 573 ;
574 [label="x[5] <= 5.9\ngini = 0.478\nsamples = 8\nvalue = [3.827, 5.845]"] ;
573 -> 574 ;
575 [label="gini = 0.0\nsamples = 4\nvalue = [2.187, 0.0]"] ;
574 -> 575 ;
576 [label="x[5] <= 6.05\ngini = 0.342\nsamples = 4\nvalue = [1.64, 5.845]"] ;
574 -> 576 ;
577 [label="gini = 0.156\nsamples = 2\nvalue = [0.547, 5.845]"] ;
576 -> 577 ;
578 [label="x[1] <= 39.5\ngini = 0.0\nsamples = 2\nvalue = [1.094, 0.0]"] ;
576 -> 578 ;
579 [label="gini = 0.0\nsamples = 1\nvalue = [0.547, 0.0]"] ;
578 -> 579 ;
580 [label="gini = 0.0\nsamples = 1\nvalue = [0.547, 0.0]"] ;
578 -> 580 ;
581 [label="x[5] <= 5.85\ngini = 0.0\nsamples = 6\nvalue = [3.281, 0.0]"] ;
573 -> 581 ;
582 [label="gini = 0.0\nsamples = 1\nvalue = [0.547, 0.0]"] ;
581 -> 582 ;
583 [label="gini = 0.0\nsamples = 5\nvalue = [2.734, 0.0]"] ;
581 -> 583 ;
584 [label="x[6] <= 142.5\ngini = 0.476\nsamples = 53\nvalue = [27.338, 17.536]"] ;
570 -> 584 ;
585 [label="x[5] <= 6.55\ngini = 0.483\nsamples = 25\nvalue = [12.029, 17.536]"] ;
584 -> 585 ;
586 [label="x[4] <= 27.28\ngini = 0.41\nsamples = 16\nvalue = [7.108, 17.536]"] ;
585 -> 586 ;
587 [label="gini = 0.0\nsamples = 2\nvalue = [1.094, 0.0]"] ;
586 -> 587 ;
588 [label="x[1] <= 41.5\ngini = 0.38\nsamples = 14\nvalue = [6.014, 17.536]"] ;
586 -> 588 ;
589 [label="x[6] <= 135.0\ngini = 0.434\nsamples = 12\nvalue = [5.468, 11.691]"] ;
588 -> 589 ;
590 [label="x[1] <= 40.5\ngini = 0.307\nsamples = 7\nvalue = [2.734, 11.691]"] ;
589 -> 590 ;
591 [label="x[5] <= 6.35\ngini = 0.266\nsamples = 6\nvalue = [2.187, 11.691]"] ;
590 -> 591 ;
592 [label="x[1] <= 39.5\ngini = 0.396\nsamples = 5\nvalue = [2.187, 5.845]"] ;
591 -> 592 ;
593 [label="gini = 0.0\nsamples = 2\nvalue = [1.094, 0.0]"] ;
592 -> 593 ;
594 [label="gini = 0.266\nsamples = 3\nvalue = [1.094, 5.845]"] ;
592 -> 594 ;
595 [label="gini = 0.0\nsamples = 1\nvalue = [0.0, 5.845]"] ;
591 -> 595 ;
596 [label="gini = 0.0\nsamples = 1\nvalue = [0.547, 0.0]"] ;
590 -> 596 ;
597 [label="gini = -0.0\nsamples = 5\nvalue = [2.734, 0.0]"] ;
589 -> 597 ;
598 [label="x[5] <= 6.35\ngini = 0.156\nsamples = 2\nvalue = [0.547, 5.845]"] ;
588 -> 598 ;
599 [label="gini = 0.0\nsamples = 1\nvalue = [0.547, 0.0]"] ;
598 -> 599 ;
600 [label="gini = 0.0\nsamples = 1\nvalue = [0.0, 5.845]"] ;
598 -> 600 ;
601 [label="gini = -0.0\nsamples = 9\nvalue = [4.921, 0.0]"] ;
585 -> 601 ;
602 [label="x[4] <= 27.395\ngini = 0.0\nsamples = 28\nvalue = [15.31, 0.0]"] ;
584 -> 602 ;
603 [label="gini = 0.0\nsamples = 24\nvalue = [13.122, 0.0]"] ;
602 -> 603 ;
604 [label="gini = 0.0\nsamples = 4\nvalue = [2.187, 0.0]"] ;
602 -> 604 ;
605 [label="x[4] <= 27.815\ngini = 0.085\nsamples = 3\nvalue = [0.547, 11.691]"] ;
569 -> 605 ;
606 [label="gini = 0.0\nsamples = 1\nvalue = [0.0, 5.845]"] ;
605 -> 606 ;
607 [label="x[4] <= 27.905\ngini = 0.156\nsamples = 2\nvalue = [0.547, 5.845]"] ;
605 -> 607 ;
608 [label="gini = 0.0\nsamples = 1\nvalue = [0.547, 0.0]"] ;
607 -> 608 ;
609 [label="gini = 0.0\nsamples = 1\nvalue = [0.0, 5.845]"] ;
607 -> 609 ;
610 [label="gini = 0.0\nsamples = 32\nvalue = [17.497, 0.0]"] ;
568 -> 610 ;
611 [label="x[4] <= 25.595\ngini = 0.086\nsamples = 227\nvalue = [123.57, 5.845]"] ;
563 -> 611 ;
612 [label="x[4] <= 25.585\ngini = 0.42\nsamples = 26\nvalue = [13.669, 5.845]"] ;
611 -> 612 ;
613 [label="gini = 0.0\nsamples = 25\nvalue = [13.669, 0.0]"] ;
612 -> 613 ;
614 [label="gini = 0.0\nsamples = 1\nvalue = [0.0, 5.845]"] ;
612 -> 614 ;
615 [label="gini = 0.0\nsamples = 201\nvalue = [109.901, 0.0]"] ;
611 -> 615 ;
616 [label="x[1] <= 38.0\ngini = 0.342\nsamples = 4\nvalue = [1.64, 5.845]"] ;
390 -> 616 ;
617 [label="gini = 0.0\nsamples = 2\nvalue = [1.094, 0.0]"] ;
616 -> 617 ;
618 [label="x[1] <= 39.5\ngini = 0.156\nsamples = 2\nvalue = [0.547, 5.845]"] ;
616 -> 618 ;
619 [label="gini = 0.0\nsamples = 1\nvalue = [0.0, 5.845]"] ;
618 -> 619 ;
620 [label="gini = 0.0\nsamples = 1\nvalue = [0.547, 0.0]"] ;
618 -> 620 ;
621 [label="x[4] <= 29.355\ngini = 0.275\nsamples = 1711\nvalue = [918.572, 181.207]"] ;
389 -> 621 ;
622 [label="x[4] <= 24.635\ngini = 0.255\nsamples = 1597\nvalue = [858.975, 151.98]"] ;
621 -> 622 ;
623 [label="x[6] <= 142.5\ngini = 0.37\nsamples = 306\nvalue = [162.39, 52.609]"] ;
622 -> 623 ;
624 [label="x[4] <= 24.12\ngini = 0.486\nsamples = 96\nvalue = [49.209, 35.072]"] ;
623 -> 624 ;
625 [label="x[4] <= 23.85\ngini = 0.5\nsamples = 74\nvalue = [37.18, 35.072]"] ;
624 -> 625 ;
626 [label="x[4] <= 22.65\ngini = 0.449\nsamples = 65\nvalue = [33.9, 17.536]"] ;
625 -> 626 ;
627 [label="x[6] <= 135.0\ngini = 0.497\nsamples = 40\nvalue = [20.23, 17.536]"] ;
626 -> 627 ;
628 [label="x[5] <= 5.75\ngini = 0.478\nsamples = 24\nvalue = [11.482, 17.536]"] ;
627 -> 628 ;
629 [label="gini = 0.0\nsamples = 6\nvalue = [3.281, 0.0]"] ;
628 -> 629 ;
630 [label="x[4] <= 19.225\ngini = 0.434\nsamples = 18\nvalue = [8.202, 17.536]"] ;
628 -> 630 ;
631 [label="gini = 0.0\nsamples = 4\nvalue = [2.187, 0.0]"] ;
630 -> 631 ;
632 [label="x[5] <= 6.15\ngini = 0.38\nsamples = 14\nvalue = [6.014, 17.536]"] ;
630 -> 632 ;
633 [label="x[4] <= 22.62\ngini = 0.496\nsamples = 10\nvalue = [4.921, 5.845]"] ;
632 -> 633 ;
634 [label="x[6] <= 128.0\ngini = 0.0\nsamples = 9\nvalue = [4.921, 0.0]"] ;
633 -> 634 ;
635 [label="gini = 0.0\nsamples = 6\nvalue = [3.281, 0.0]"] ;
634 -> 635 ;
636 [label="gini = 0.0\nsamples = 3\nvalue = [1.64, 0.0]"] ;
634 -> 636 ;
637 [label="gini = 0.0\nsamples = 1\nvalue = [0.0, 5.845]"] ;
633 -> 637 ;
638 [label="x[4] <= 22.025\ngini = 0.156\nsamples = 4\nvalue = [1.094, 11.691]"] ;
632 -> 638 ;
639 [label="gini = 0.0\nsamples = 2\nvalue = [0.0, 11.691]"] ;
638 -> 639 ;
640 [label="x[4] <= 22.345\ngini = 0.0\nsamples = 2\nvalue = [1.094, 0.0]"] ;
638 -> 640 ;
641 [label="gini = 0.0\nsamples = 1\nvalue = [0.547, 0.0]"] ;
640 -> 641 ;
642 [label="gini = 0.0\nsamples = 1\nvalue = [0.547, 0.0]"] ;
640 -> 642 ;
643 [label="gini = -0.0\nsamples = 16\nvalue = [8.748, 0.0]"] ;
627 -> 643 ;
644 [label="gini = 0.0\nsamples = 25\nvalue = [13.669, 0.0]"] ;
626 -> 644 ;
645 [label="x[6] <= 128.0\ngini = 0.266\nsamples = 9\nvalue = [3.281, 17.536]"] ;
625 -> 645 ;
646 [label="gini = 0.0\nsamples = 3\nvalue = [1.64, 0.0]"] ;
645 -> 646 ;
647 [label="x[4] <= 24.01\ngini = 0.156\nsamples = 6\nvalue = [1.64, 17.536]"] ;
645 -> 647 ;
648 [label="gini = 0.0\nsamples = 2\nvalue = [0.0, 11.691]"] ;
647 -> 648 ;
649 [label="x[4] <= 24.085\ngini = 0.342\nsamples = 4\nvalue = [1.64, 5.845]"] ;
647 -> 649 ;
650 [label="x[6] <= 135.0\ngini = 0.0\nsamples = 3\nvalue = [1.64, 0.0]"] ;
649 -> 650 ;
651 [label="gini = 0.0\nsamples = 1\nvalue = [0.547, 0.0]"] ;
650 -> 651 ;
652 [label="gini = 0.0\nsamples = 2\nvalue = [1.094, 0.0]"] ;
650 -> 652 ;
653 [label="gini = 0.0\nsamples = 1\nvalue = [0.0, 5.845]"] ;
649 -> 653 ;
654 [label="x[4] <= 24.14\ngini = 0.0\nsamples = 22\nvalue = [12.029, 0.0]"] ;
624 -> 654 ;
655 [label="gini = 0.0\nsamples = 2\nvalue = [1.094, 0.0]"] ;
654 -> 655 ;
656 [label="gini = 0.0\nsamples = 20\nvalue = [10.935, 0.0]"] ;
654 -> 656 ;
657 [label="x[4] <= 24.475\ngini = 0.232\nsamples = 210\nvalue = [113.181, 17.536]"] ;
623 -> 657 ;
658 [label="x[5] <= 6.55\ngini = 0.097\nsamples = 200\nvalue = [108.807, 5.845]"] ;
657 -> 658 ;
659 [label="x[3] <= 0.5\ngini = 0.0\nsamples = 179\nvalue = [97.872, 0.0]"] ;
658 -> 659 ;
660 [label="gini = 0.0\nsamples = 178\nvalue = [97.325, 0.0]"] ;
659 -> 660 ;
661 [label="gini = 0.0\nsamples = 1\nvalue = [0.547, 0.0]"] ;
659 -> 661 ;
662 [label="x[6] <= 156.5\ngini = 0.454\nsamples = 21\nvalue = [10.935, 5.845]"] ;
658 -> 662 ;
663 [label="x[1] <= 35.5\ngini = 0.396\nsamples = 5\nvalue = [2.187, 5.845]"] ;
662 -> 663 ;
664 [label="x[1] <= 32.0\ngini = 0.156\nsamples = 2\nvalue = [0.547, 5.845]"] ;
663 -> 664 ;
665 [label="gini = 0.0\nsamples = 1\nvalue = [0.547, 0.0]"] ;
664 -> 665 ;
666 [label="gini = 0.0\nsamples = 1\nvalue = [0.0, 5.845]"] ;
664 -> 666 ;
667 [label="gini = -0.0\nsamples = 3\nvalue = [1.64, 0.0]"] ;
663 -> 667 ;
668 [label="gini = 0.0\nsamples = 16\nvalue = [8.748, 0.0]"] ;
662 -> 668 ;
669 [label="x[1] <= 38.5\ngini = 0.396\nsamples = 10\nvalue = [4.374, 11.691]"] ;
657 -> 669 ;
670 [label="gini = 0.0\nsamples = 5\nvalue = [2.734, 0.0]"] ;
669 -> 670 ;
671 [label="x[1] <= 41.0\ngini = 0.216\nsamples = 5\nvalue = [1.64, 11.691]"] ;
669 -> 671 ;
672 [label="x[6] <= 179.5\ngini = 0.085\nsamples = 3\nvalue = [0.547, 11.691]"] ;
671 -> 672 ;
673 [label="gini = 0.0\nsamples = 2\nvalue = [0.0, 11.691]"] ;
672 -> 673 ;
674 [label="gini = 0.0\nsamples = 1\nvalue = [0.547, 0.0]"] ;
672 -> 674 ;
675 [label="x[5] <= 6.1\ngini = 0.0\nsamples = 2\nvalue = [1.094, 0.0]"] ;
671 -> 675 ;
676 [label="gini = 0.0\nsamples = 1\nvalue = [0.547, 0.0]"] ;
675 -> 676 ;
677 [label="gini = 0.0\nsamples = 1\nvalue = [0.547, 0.0]"] ;
675 -> 677 ;
678 [label="x[1] <= 28.5\ngini = 0.219\nsamples = 1291\nvalue = [696.584, 99.372]"] ;
622 -> 678 ;
679 [label="x[6] <= 142.5\ngini = 0.413\nsamples = 81\nvalue = [42.648, 17.536]"] ;
678 -> 679 ;
680 [label="x[5] <= 6.15\ngini = 0.486\nsamples = 26\nvalue = [12.576, 17.536]"] ;
679 -> 680 ;
681 [label="x[6] <= 135.0\ngini = 0.38\nsamples = 14\nvalue = [6.014, 17.536]"] ;
680 -> 681 ;
682 [label="gini = 0.0\nsamples = 5\nvalue = [2.734, 0.0]"] ;
681 -> 682 ;
683 [label="x[4] <= 26.95\ngini = 0.266\nsamples = 9\nvalue = [3.281, 17.536]"] ;
681 -> 683 ;
684 [label="gini = 0.0\nsamples = 3\nvalue = [1.64, 0.0]"] ;
683 -> 684 ;
685 [label="x[5] <= 5.75\ngini = 0.156\nsamples = 6\nvalue = [1.64, 17.536]"] ;
683 -> 685 ;
686 [label="gini = 0.0\nsamples = 2\nvalue = [1.094, 0.0]"] ;
685 -> 686 ;
687 [label="x[4] <= 27.495\ngini = 0.059\nsamples = 4\nvalue = [0.547, 17.536]"] ;
685 -> 687 ;
688 [label="gini = 0.0\nsamples = 2\nvalue = [0.0, 11.691]"] ;
687 -> 688 ;
689 [label="x[4] <= 27.88\ngini = 0.156\nsamples = 2\nvalue = [0.547, 5.845]"] ;
687 -> 689 ;
690 [label="gini = 0.0\nsamples = 1\nvalue = [0.547, 0.0]"] ;
689 -> 690 ;
691 [label="gini = 0.0\nsamples = 1\nvalue = [0.0, 5.845]"] ;
689 -> 691 ;
692 [label="gini = -0.0\nsamples = 12\nvalue = [6.561, 0.0]"] ;
680 -> 692 ;
693 [label="gini = 0.0\nsamples = 55\nvalue = [30.072, 0.0]"] ;
679 -> 693 ;
694 [label="x[6] <= 158.5\ngini = 0.198\nsamples = 1210\nvalue = [653.936, 81.835]"] ;
678 -> 694 ;
695 [label="x[4] <= 26.675\ngini = 0.135\nsamples = 824\nvalue = [447.257, 35.072]"] ;
694 -> 695 ;
696 [label="x[4] <= 26.665\ngini = 0.341\nsamples = 157\nvalue = [83.656, 23.382]"] ;
695 -> 696 ;
697 [label="x[5] <= 6.15\ngini = 0.287\nsamples = 156\nvalue = [83.656, 17.536]"] ;
696 -> 697 ;
698 [label="x[5] <= 5.9\ngini = 0.392\nsamples = 91\nvalue = [48.116, 17.536]"] ;
697 -> 698 ;
699 [label="gini = 0.0\nsamples = 44\nvalue = [24.058, 0.0]"] ;
698 -> 699 ;
700 [label="x[4] <= 25.395\ngini = 0.488\nsamples = 47\nvalue = [24.058, 17.536]"] ;
698 -> 700 ;
701 [label="gini = 0.0\nsamples = 19\nvalue = [10.389, 0.0]"] ;
700 -> 701 ;
702 [label="x[4] <= 25.615\ngini = 0.492\nsamples = 28\nvalue = [13.669, 17.536]"] ;
700 -> 702 ;
703 [label="x[6] <= 151.5\ngini = 0.216\nsamples = 5\nvalue = [1.64, 11.691]"] ;
702 -> 703 ;
704 [label="x[6] <= 135.0\ngini = 0.156\nsamples = 4\nvalue = [1.094, 11.691]"] ;
703 -> 704 ;
705 [label="gini = 0.0\nsamples = 1\nvalue = [0.0, 5.845]"] ;
704 -> 705 ;
706 [label="x[4] <= 25.55\ngini = 0.266\nsamples = 3\nvalue = [1.094, 5.845]"] ;
704 -> 706 ;
707 [label="x[1] <= 36.5\ngini = 0.0\nsamples = 2\nvalue = [1.094, 0.0]"] ;
706 -> 707 ;
708 [label="gini = 0.0\nsamples = 1\nvalue = [0.547, 0.0]"] ;
707 -> 708 ;
709 [label="gini = 0.0\nsamples = 1\nvalue = [0.547, 0.0]"] ;
707 -> 709 ;
710 [label="gini = 0.0\nsamples = 1\nvalue = [0.0, 5.845]"] ;
706 -> 710 ;
711 [label="gini = 0.0\nsamples = 1\nvalue = [0.547, 0.0]"] ;
703 -> 711 ;
712 [label="x[4] <= 26.375\ngini = 0.44\nsamples = 23\nvalue = [12.029, 5.845]"] ;
702 -> 712 ;
713 [label="gini = -0.0\nsamples = 17\nvalue = [9.295, 0.0]"] ;
712 -> 713 ;
714 [label="x[4] <= 26.435\ngini = 0.434\nsamples = 6\nvalue = [2.734, 5.845]"] ;
712 -> 714 ;
715 [label="gini = 0.0\nsamples = 1\nvalue = [0.0, 5.845]"] ;
714 -> 715 ;
716 [label="x[4] <= 26.51\ngini = 0.0\nsamples = 5\nvalue = [2.734, 0.0]"] ;
714 -> 716 ;
717 [label="gini = 0.0\nsamples = 1\nvalue = [0.547, 0.0]"] ;
716 -> 717 ;
718 [label="gini = 0.0\nsamples = 4\nvalue = [2.187, 0.0]"] ;
716 -> 718 ;
719 [label="x[6] <= 128.0\ngini = 0.0\nsamples = 65\nvalue = [35.54, 0.0]"] ;
697 -> 719 ;
720 [label="gini = 0.0\nsamples = 8\nvalue = [4.374, 0.0]"] ;
719 -> 720 ;
721 [label="gini = 0.0\nsamples = 57\nvalue = [31.166, 0.0]"] ;
719 -> 721 ;
722 [label="gini = 0.0\nsamples = 1\nvalue = [0.0, 5.845]"] ;
696 -> 722 ;
723 [label="x[5] <= 6.05\ngini = 0.06\nsamples = 667\nvalue = [363.602, 11.691]"] ;
695 -> 723 ;
724 [label="x[6] <= 142.5\ngini = 0.134\nsamples = 276\nvalue = [149.815, 11.691]"] ;
723 -> 724 ;
725 [label="gini = 0.0\nsamples = 136\nvalue = [74.361, 0.0]"] ;
724 -> 725 ;
726 [label="x[1] <= 36.5\ngini = 0.232\nsamples = 140\nvalue = [75.454, 11.691]"] ;
724 -> 726 ;
727 [label="x[1] <= 32.5\ngini = 0.335\nsamples = 81\nvalue = [43.195, 11.691]"] ;
726 -> 727 ;
728 [label="gini = 0.0\nsamples = 44\nvalue = [24.058, 0.0]"] ;
727 -> 728 ;
729 [label="x[5] <= 5.75\ngini = 0.471\nsamples = 37\nvalue = [19.137, 11.691]"] ;
727 -> 729 ;
730 [label="gini = 0.0\nsamples = 14\nvalue = [7.655, 0.0]"] ;
729 -> 730 ;
731 [label="x[6] <= 156.5\ngini = 0.5\nsamples = 23\nvalue = [11.482, 11.691]"] ;
729 -> 731 ;
732 [label="x[4] <= 28.035\ngini = 0.478\nsamples = 16\nvalue = [7.655, 11.691]"] ;
731 -> 732 ;
733 [label="x[1] <= 33.5\ngini = 0.434\nsamples = 12\nvalue = [5.468, 11.691]"] ;
732 -> 733 ;
734 [label="gini = 0.266\nsamples = 3\nvalue = [1.094, 5.845]"] ;
733 -> 734 ;
735 [label="x[5] <= 5.9\ngini = 0.49\nsamples = 9\nvalue = [4.374, 5.845]"] ;
733 -> 735 ;
736 [label="x[1] <= 35.5\ngini = 0.342\nsamples = 4\nvalue = [1.64, 5.845]"] ;
735 -> 736 ;
737 [label="gini = 0.0\nsamples = 3\nvalue = [1.64, 0.0]"] ;
736 -> 737 ;
738 [label="gini = 0.0\nsamples = 1\nvalue = [0.0, 5.845]"] ;
736 -> 738 ;
739 [label="gini = -0.0\nsamples = 5\nvalue = [2.734, 0.0]"] ;
735 -> 739 ;
740 [label="gini = -0.0\nsamples = 4\nvalue = [2.187, 0.0]"] ;
732 -> 740 ;
741 [label="gini = -0.0\nsamples = 7\nvalue = [3.827, 0.0]"] ;
731 -> 741 ;
742 [label="x[4] <= 26.915\ngini = 0.0\nsamples = 59\nvalue = [32.259, 0.0]"] ;
726 -> 742 ;
743 [label="gini = 0.0\nsamples = 1\nvalue = [0.547, 0.0]"] ;
742 -> 743 ;
744 [label="gini = 0.0\nsamples = 58\nvalue = [31.713, 0.0]"] ;
742 -> 744 ;
745 [label="x[1] <= 29.5\ngini = 0.0\nsamples = 391\nvalue = [213.787, 0.0]"] ;
723 -> 745 ;
746 [label="gini = 0.0\nsamples = 25\nvalue = [13.669, 0.0]"] ;
745 -> 746 ;
747 [label="gini = 0.0\nsamples = 366\nvalue = [200.118, 0.0]"] ;
745 -> 747 ;
748 [label="x[5] <= 6.35\ngini = 0.301\nsamples = 386\nvalue = [206.679, 46.763]"] ;
694 -> 748 ;
749 [label="x[1] <= 39.5\ngini = 0.073\nsamples = 274\nvalue = [149.268, 5.845]"] ;
748 -> 749 ;
750 [label="x[1] <= 29.5\ngini = 0.0\nsamples = 217\nvalue = [118.649, 0.0]"] ;
749 -> 750 ;
751 [label="gini = 0.0\nsamples = 21\nvalue = [11.482, 0.0]"] ;
750 -> 751 ;
752 [label="gini = 0.0\nsamples = 196\nvalue = [107.167, 0.0]"] ;
750 -> 752 ;
753 [label="x[1] <= 40.5\ngini = 0.269\nsamples = 57\nvalue = [30.619, 5.845]"] ;
749 -> 753 ;
754 [label="x[5] <= 6.15\ngini = 0.495\nsamples = 14\nvalue = [7.108, 5.845]"] ;
753 -> 754 ;
755 [label="x[4] <= 27.325\ngini = 0.0\nsamples = 10\nvalue = [5.468, 0.0]"] ;
754 -> 755 ;
756 [label="gini = 0.0\nsamples = 5\nvalue = [2.734, 0.0]"] ;
755 -> 756 ;
757 [label="gini = 0.0\nsamples = 5\nvalue = [2.734, 0.0]"] ;
755 -> 757 ;
758 [label="x[4] <= 26.87\ngini = 0.342\nsamples = 4\nvalue = [1.64, 5.845]"] ;
754 -> 758 ;
759 [label="gini = 0.0\nsamples = 2\nvalue = [1.094, 0.0]"] ;
758 -> 759 ;
760 [label="x[6] <= 159.5\ngini = 0.156\nsamples = 2\nvalue = [0.547, 5.845]"] ;
758 -> 760 ;
761 [label="gini = 0.0\nsamples = 1\nvalue = [0.547, 0.0]"] ;
760 -> 761 ;
762 [label="gini = 0.0\nsamples = 1\nvalue = [0.0, 5.845]"] ;
760 -> 762 ;
763 [label="gini = -0.0\nsamples = 43\nvalue = [23.511, 0.0]"] ;
753 -> 763 ;
764 [label="x[4] <= 27.31\ngini = 0.486\nsamples = 112\nvalue = [57.411, 40.918]"] ;
748 -> 764 ;
765 [label="gini = 0.0\nsamples = 29\nvalue = [15.856, 0.0]"] ;
764 -> 765 ;
766 [label="x[1] <= 39.5\ngini = 0.5\nsamples = 83\nvalue = [41.554, 40.918]"] ;
764 -> 766 ;
767 [label="x[1] <= 30.5\ngini = 0.488\nsamples = 62\nvalue = [30.072, 40.918]"] ;
766 -> 767 ;
768 [label="gini = 0.0\nsamples = 11\nvalue = [6.014, 0.0]"] ;
767 -> 768 ;
769 [label="x[1] <= 32.5\ngini = 0.466\nsamples = 51\nvalue = [24.058, 40.918]"] ;
767 -> 769 ;
770 [label="x[5] <= 6.55\ngini = 0.266\nsamples = 9\nvalue = [3.281, 17.536]"] ;
769 -> 770 ;
771 [label="x[6] <= 180.0\ngini = 0.111\nsamples = 5\nvalue = [1.094, 17.536]"] ;
770 -> 771 ;
772 [label="x[6] <= 159.5\ngini = 0.059\nsamples = 4\nvalue = [0.547, 17.536]"] ;
771 -> 772 ;
773 [label="gini = 0.0\nsamples = 1\nvalue = [0.0, 5.845]"] ;
772 -> 773 ;
774 [label="x[1] <= 31.5\ngini = 0.085\nsamples = 3\nvalue = [0.547, 11.691]"] ;
772 -> 774 ;
775 [label="gini = 0.0\nsamples = 1\nvalue = [0.0, 5.845]"] ;
774 -> 775 ;
776 [label="gini = 0.156\nsamples = 2\nvalue = [0.547, 5.845]"] ;
774 -> 776 ;
777 [label="gini = -0.0\nsamples = 1\nvalue = [0.547, 0.0]"] ;
771 -> 777 ;
778 [label="gini = -0.0\nsamples = 4\nvalue = [2.187, 0.0]"] ;
770 -> 778 ;
779 [label="x[4] <= 27.35\ngini = 0.498\nsamples = 42\nvalue = [20.777, 23.382]"] ;
769 -> 779 ;
780 [label="x[6] <= 159.5\ngini = 0.4\nsamples = 29\nvalue = [15.31, 5.845]"] ;
779 -> 780 ;
781 [label="x[5] <= 6.55\ngini = 0.49\nsamples = 9\nvalue = [4.374, 5.845]"] ;
780 -> 781 ;
782 [label="x[4] <= 27.33\ngini = 0.0\nsamples = 8\nvalue = [4.374, 0.0]"] ;
781 -> 782 ;
783 [label="gini = 0.0\nsamples = 7\nvalue = [3.827, 0.0]"] ;
782 -> 783 ;
784 [label="gini = 0.0\nsamples = 1\nvalue = [0.547, 0.0]"] ;
782 -> 784 ;
785 [label="gini = 0.0\nsamples = 1\nvalue = [0.0, 5.845]"] ;
781 -> 785 ;
786 [label="gini = -0.0\nsamples = 20\nvalue = [10.935, 0.0]"] ;
780 -> 786 ;
787 [label="x[4] <= 28.465\ngini = 0.362\nsamples = 13\nvalue = [5.468, 17.536]"] ;
779 -> 787 ;
788 [label="x[4] <= 28.06\ngini = 0.233\nsamples = 8\nvalue = [2.734, 17.536]"] ;
787 -> 788 ;
789 [label="x[4] <= 27.38\ngini = 0.434\nsamples = 6\nvalue = [2.734, 5.845]"] ;
788 -> 789 ;
790 [label="gini = 0.0\nsamples = 1\nvalue = [0.0, 5.845]"] ;
789 -> 790 ;
791 [label="gini = 0.0\nsamples = 5\nvalue = [2.734, 0.0]"] ;
789 -> 791 ;
792 [label="gini = 0.0\nsamples = 2\nvalue = [0.0, 11.691]"] ;
788 -> 792 ;
793 [label="gini = -0.0\nsamples = 5\nvalue = [2.734, 0.0]"] ;
787 -> 793 ;
794 [label="x[1] <= 40.5\ngini = 0.0\nsamples = 21\nvalue = [11.482, 0.0]"] ;
766 -> 794 ;
795 [label="gini = 0.0\nsamples = 10\nvalue = [5.468, 0.0]"] ;
794 -> 795 ;
796 [label="gini = 0.0\nsamples = 11\nvalue = [6.014, 0.0]"] ;
794 -> 796 ;
797 [label="x[4] <= 29.385\ngini = 0.442\nsamples = 114\nvalue = [59.598, 29.227]"] ;
621 -> 797 ;
798 [label="x[5] <= 6.15\ngini = 0.085\nsamples = 3\nvalue = [0.547, 11.691]"] ;
797 -> 798 ;
799 [label="x[1] <= 39.5\ngini = 0.156\nsamples = 2\nvalue = [0.547, 5.845]"] ;
798 -> 799 ;
800 [label="gini = 0.0\nsamples = 1\nvalue = [0.547, 0.0]"] ;
799 -> 800 ;
801 [label="gini = 0.0\nsamples = 1\nvalue = [0.0, 5.845]"] ;
799 -> 801 ;
802 [label="gini = 0.0\nsamples = 1\nvalue = [0.0, 5.845]"] ;
798 -> 802 ;
803 [label="x[6] <= 158.5\ngini = 0.353\nsamples = 111\nvalue = [59.051, 17.536]"] ;
797 -> 803 ;
804 [label="x[4] <= 29.395\ngini = 0.0\nsamples = 71\nvalue = [38.821, 0.0]"] ;
803 -> 804 ;
805 [label="gini = 0.0\nsamples = 1\nvalue = [0.547, 0.0]"] ;
804 -> 805 ;
806 [label="gini = 0.0\nsamples = 70\nvalue = [38.274, 0.0]"] ;
804 -> 806 ;
807 [label="x[1] <= 34.5\ngini = 0.497\nsamples = 40\nvalue = [20.23, 17.536]"] ;
803 -> 807 ;
808 [label="gini = -0.0\nsamples = 22\nvalue = [12.029, 0.0]"] ;
807 -> 808 ;
809 [label="x[4] <= 29.715\ngini = 0.434\nsamples = 18\nvalue = [8.202, 17.536]"] ;
807 -> 809 ;
810 [label="x[4] <= 29.6\ngini = 0.085\nsamples = 3\nvalue = [0.547, 11.691]"] ;
809 -> 810 ;
811 [label="gini = 0.0\nsamples = 1\nvalue = [0.547, 0.0]"] ;
810 -> 811 ;
812 [label="gini = 0.0\nsamples = 2\nvalue = [0.0, 11.691]"] ;
810 -> 812 ;
813 [label="x[4] <= 30.385\ngini = 0.491\nsamples = 15\nvalue = [7.655, 5.845]"] ;
809 -> 813 ;
814 [label="gini = -0.0\nsamples = 13\nvalue = [7.108, 0.0]"] ;
813 -> 814 ;
815 [label="x[4] <= 30.45\ngini = 0.156\nsamples = 2\nvalue = [0.547, 5.845]"] ;
813 -> 815 ;
816 [label="gini = 0.0\nsamples = 1\nvalue = [0.0, 5.845]"] ;
815 -> 816 ;
817 [label="gini = 0.0\nsamples = 1\nvalue = [0.547, 0.0]"] ;
815 -> 817 ;
818 [label="x[6] <= 128.0\ngini = 0.5\nsamples = 144\nvalue = [71.627, 75.99]"] ;
6 -> 818 ;
819 [label="gini = 0.0\nsamples = 58\nvalue = [31.713, 0.0]"] ;
818 -> 819 ;
820 [label="x[1] <= 27.5\ngini = 0.452\nsamples = 86\nvalue = [39.914, 75.99]"] ;
818 -> 820 ;
821 [label="gini = 0.0\nsamples = 11\nvalue = [6.014, 0.0]"] ;
820 -> 821 ;
822 [label="x[4] <= 25.875\ngini = 0.427\nsamples = 75\nvalue = [33.9, 75.99]"] ;
820 -> 822 ;
823 [label="x[6] <= 159.0\ngini = 0.226\nsamples = 13\nvalue = [4.374, 29.227]"] ;
822 -> 823 ;
824 [label="x[3] <= 0.5\ngini = 0.478\nsamples = 8\nvalue = [3.827, 5.845]"] ;
823 -> 824 ;
825 [label="x[5] <= 6.0\ngini = 0.0\nsamples = 7\nvalue = [3.827, 0.0]"] ;
824 -> 825 ;
826 [label="gini = 0.0\nsamples = 2\nvalue = [1.094, 0.0]"] ;
825 -> 826 ;
827 [label="gini = 0.0\nsamples = 5\nvalue = [2.734, 0.0]"] ;
825 -> 827 ;
828 [label="gini = 0.0\nsamples = 1\nvalue = [0.0, 5.845]"] ;
824 -> 828 ;
829 [label="x[1] <= 38.0\ngini = 0.045\nsamples = 5\nvalue = [0.547, 23.382]"] ;
823 -> 829 ;
830 [label="x[5] <= 5.85\ngini = 0.085\nsamples = 3\nvalue = [0.547, 11.691]"] ;
829 -> 830 ;
831 [label="gini = 0.0\nsamples = 1\nvalue = [0.547, 0.0]"] ;
830 -> 831 ;
832 [label="gini = 0.0\nsamples = 2\nvalue = [0.0, 11.691]"] ;
830 -> 832 ;
833 [label="gini = 0.0\nsamples = 2\nvalue = [0.0, 11.691]"] ;
829 -> 833 ;
834 [label="x[6] <= 156.5\ngini = 0.474\nsamples = 62\nvalue = [29.526, 46.763]"] ;
822 -> 834 ;
835 [label="x[1] <= 32.5\ngini = 0.38\nsamples = 28\nvalue = [12.029, 35.072]"] ;
834 -> 835 ;
836 [label="gini = 0.0\nsamples = 7\nvalue = [3.827, 0.0]"] ;
835 -> 836 ;
837 [label="x[4] <= 28.755\ngini = 0.307\nsamples = 21\nvalue = [8.202, 35.072]"] ;
835 -> 837 ;
838 [label="x[4] <= 27.41\ngini = 0.461\nsamples = 14\nvalue = [6.561, 11.691]"] ;
837 -> 838 ;
839 [label="x[5] <= 6.15\ngini = 0.342\nsamples = 8\nvalue = [3.281, 11.691]"] ;
838 -> 839 ;
840 [label="x[6] <= 150.0\ngini = 0.216\nsamples = 5\nvalue = [1.64, 11.691]"] ;
839 -> 840 ;
841 [label="x[6] <= 142.5\ngini = 0.156\nsamples = 4\nvalue = [1.094, 11.691]"] ;
840 -> 841 ;
842 [label="x[5] <= 6.05\ngini = 0.266\nsamples = 3\nvalue = [1.094, 5.845]"] ;
841 -> 842 ;
843 [label="gini = 0.0\nsamples = 1\nvalue = [0.0, 5.845]"] ;
842 -> 843 ;
844 [label="x[1] <= 35.5\ngini = 0.0\nsamples = 2\nvalue = [1.094, 0.0]"] ;
842 -> 844 ;
845 [label="gini = 0.0\nsamples = 1\nvalue = [0.547, 0.0]"] ;
844 -> 845 ;
846 [label="gini = 0.0\nsamples = 1\nvalue = [0.547, 0.0]"] ;
844 -> 846 ;
847 [label="gini = 0.0\nsamples = 1\nvalue = [0.0, 5.845]"] ;
841 -> 847 ;
848 [label="gini = 0.0\nsamples = 1\nvalue = [0.547, 0.0]"] ;
840 -> 848 ;
849 [label="x[1] <= 37.5\ngini = 0.0\nsamples = 3\nvalue = [1.64, 0.0]"] ;
839 -> 849 ;
850 [label="gini = 0.0\nsamples = 1\nvalue = [0.547, 0.0]"] ;
849 -> 850 ;
851 [label="gini = 0.0\nsamples = 2\nvalue = [1.094, 0.0]"] ;
849 -> 851 ;
852 [label="gini = -0.0\nsamples = 6\nvalue = [3.281, 0.0]"] ;
838 -> 852 ;
853 [label="x[1] <= 41.5\ngini = 0.123\nsamples = 7\nvalue = [1.64, 23.382]"] ;
837 -> 853 ;
854 [label="x[5] <= 6.4\ngini = 0.085\nsamples = 6\nvalue = [1.094, 23.382]"] ;
853 -> 854 ;
855 [label="x[1] <= 40.0\ngini = 0.266\nsamples = 3\nvalue = [1.094, 5.845]"] ;
854 -> 855 ;
856 [label="gini = -0.0\nsamples = 2\nvalue = [1.094, 0.0]"] ;
855 -> 856 ;
857 [label="gini = 0.0\nsamples = 1\nvalue = [0.0, 5.845]"] ;
855 -> 857 ;
858 [label="gini = 0.0\nsamples = 3\nvalue = [0.0, 17.536]"] ;
854 -> 858 ;
859 [label="gini = -0.0\nsamples = 1\nvalue = [0.547, 0.0]"] ;
853 -> 859 ;
860 [label="x[0] <= 0.5\ngini = 0.48\nsamples = 34\nvalue = [17.497, 11.691]"] ;
834 -> 860 ;
861 [label="x[1] <= 38.5\ngini = 0.461\nsamples = 14\nvalue = [6.561, 11.691]"] ;
860 -> 861 ;
862 [label="x[6] <= 158.5\ngini = 0.307\nsamples = 7\nvalue = [2.734, 11.691]"] ;
861 -> 862 ;
863 [label="gini = 0.0\nsamples = 4\nvalue = [2.187, 0.0]"] ;
862 -> 863 ;
864 [label="x[6] <= 180.0\ngini = 0.085\nsamples = 3\nvalue = [0.547, 11.691]"] ;
862 -> 864 ;
865 [label="gini = 0.0\nsamples = 2\nvalue = [0.0, 11.691]"] ;
864 -> 865 ;
866 [label="gini = 0.0\nsamples = 1\nvalue = [0.547, 0.0]"] ;
864 -> 866 ;
867 [label="x[5] <= 5.9\ngini = 0.0\nsamples = 7\nvalue = [3.827, 0.0]"] ;
861 -> 867 ;
868 [label="gini = 0.0\nsamples = 1\nvalue = [0.547, 0.0]"] ;
867 -> 868 ;
869 [label="gini = 0.0\nsamples = 6\nvalue = [3.281, 0.0]"] ;
867 -> 869 ;
870 [label="gini = -0.0\nsamples = 20\nvalue = [10.935, 0.0]"] ;
860 -> 870 ;
871 [label="x[6] <= 113.0\ngini = 0.428\nsamples = 3471\nvalue = [1821.288, 818.355]"] ;
5 -> 871 ;
872 [label="gini = 0.0\nsamples = 1021\nvalue = [558.251, 0.0]"] ;
871 -> 872 ;
873 [label="x[1] <= 26.5\ngini = 0.477\nsamples = 2450\nvalue = [1263.037, 818.355]"] ;
871 -> 873 ;
874 [label="x[6] <= 128.0\ngini = 0.187\nsamples = 743\nvalue = [401.875, 46.763]"] ;
873 -> 874 ;
875 [label="x[1] <= 21.5\ngini = 0.483\nsamples = 83\nvalue = [42.648, 29.227]"] ;
874 -> 875 ;
876 [label="gini = 0.0\nsamples = 34\nvalue = [18.59, 0.0]"] ;
875 -> 876 ;
877 [label="x[4] <= 36.48\ngini = 0.495\nsamples = 49\nvalue = [24.058, 29.227]"] ;
875 -> 877 ;
878 [label="x[4] <= 31.6\ngini = 0.44\nsamples = 23\nvalue = [12.029, 5.845]"] ;
877 -> 878 ;
879 [label="x[4] <= 31.53\ngini = 0.266\nsamples = 3\nvalue = [1.094, 5.845]"] ;
878 -> 879 ;
880 [label="x[5] <= 6.25\ngini = 0.0\nsamples = 2\nvalue = [1.094, 0.0]"] ;
879 -> 880 ;
881 [label="gini = 0.0\nsamples = 1\nvalue = [0.547, 0.0]"] ;
880 -> 881 ;
882 [label="gini = 0.0\nsamples = 1\nvalue = [0.547, 0.0]"] ;
880 -> 882 ;
883 [label="gini = 0.0\nsamples = 1\nvalue = [0.0, 5.845]"] ;
879 -> 883 ;
884 [label="gini = -0.0\nsamples = 20\nvalue = [10.935, 0.0]"] ;
878 -> 884 ;
885 [label="x[5] <= 6.35\ngini = 0.449\nsamples = 26\nvalue = [12.029, 23.382]"] ;
877 -> 885 ;
886 [label="x[5] <= 5.75\ngini = 0.372\nsamples = 18\nvalue = [7.655, 23.382]"] ;
885 -> 886 ;
887 [label="gini = 0.0\nsamples = 5\nvalue = [2.734, 0.0]"] ;
886 -> 887 ;
888 [label="x[4] <= 37.52\ngini = 0.287\nsamples = 13\nvalue = [4.921, 23.382]"] ;
886 -> 888 ;
889 [label="gini = 0.0\nsamples = 2\nvalue = [0.0, 11.691]"] ;
888 -> 889 ;
890 [label="x[4] <= 43.265\ngini = 0.417\nsamples = 11\nvalue = [4.921, 11.691]"] ;
888 -> 890 ;
891 [label="x[4] <= 38.64\ngini = 0.0\nsamples = 6\nvalue = [3.281, 0.0]"] ;
890 -> 891 ;
892 [label="gini = 0.0\nsamples = 1\nvalue = [0.547, 0.0]"] ;
891 -> 892 ;
893 [label="gini = 0.0\nsamples = 5\nvalue = [2.734, 0.0]"] ;
891 -> 893 ;
894 [label="x[0] <= 0.5\ngini = 0.216\nsamples = 5\nvalue = [1.64, 11.691]"] ;
890 -> 894 ;
895 [label="gini = 0.0\nsamples = 2\nvalue = [0.0, 11.691]"] ;
894 -> 895 ;
896 [label="gini = -0.0\nsamples = 3\nvalue = [1.64, 0.0]"] ;
894 -> 896 ;
897 [label="gini = -0.0\nsamples = 8\nvalue = [4.374, 0.0]"] ;
885 -> 897 ;
898 [label="x[4] <= 55.92\ngini = 0.089\nsamples = 660\nvalue = [359.227, 17.536]"] ;
874 -> 898 ;
899 [label="x[4] <= 31.485\ngini = 0.062\nsamples = 650\nvalue = [354.306, 11.691]"] ;
898 -> 899 ;
900 [label="x[4] <= 31.405\ngini = 0.345\nsamples = 77\nvalue = [41.008, 11.691]"] ;
899 -> 900 ;
901 [label="gini = -0.0\nsamples = 65\nvalue = [35.54, 0.0]"] ;
900 -> 901 ;
902 [label="x[1] <= 22.0\ngini = 0.434\nsamples = 12\nvalue = [5.468, 11.691]"] ;
900 -> 902 ;
903 [label="gini = -0.0\nsamples = 7\nvalue = [3.827, 0.0]"] ;
902 -> 903 ;
904 [label="x[5] <= 5.95\ngini = 0.216\nsamples = 5\nvalue = [1.64, 11.691]"] ;
902 -> 904 ;
905 [label="gini = 0.0\nsamples = 1\nvalue = [0.547, 0.0]"] ;
904 -> 905 ;
906 [label="x[5] <= 6.4\ngini = 0.156\nsamples = 4\nvalue = [1.094, 11.691]"] ;
904 -> 906 ;
907 [label="x[0] <= 0.5\ngini = 0.085\nsamples = 3\nvalue = [0.547, 11.691]"] ;
906 -> 907 ;
908 [label="gini = 0.0\nsamples = 1\nvalue = [0.0, 5.845]"] ;
907 -> 908 ;
909 [label="x[6] <= 150.0\ngini = 0.156\nsamples = 2\nvalue = [0.547, 5.845]"] ;
907 -> 909 ;
910 [label="gini = 0.0\nsamples = 1\nvalue = [0.0, 5.845]"] ;
909 -> 910 ;
911 [label="gini = 0.0\nsamples = 1\nvalue = [0.547, 0.0]"] ;
909 -> 911 ;
912 [label="gini = 0.0\nsamples = 1\nvalue = [0.547, 0.0]"] ;
906 -> 912 ;
913 [label="x[6] <= 135.0\ngini = 0.0\nsamples = 573\nvalue = [313.299, 0.0]"] ;
899 -> 913 ;
914 [label="gini = 0.0\nsamples = 75\nvalue = [41.008, 0.0]"] ;
913 -> 914 ;
915 [label="gini = 0.0\nsamples = 498\nvalue = [272.291, 0.0]"] ;
913 -> 915 ;
916 [label="x[4] <= 56.085\ngini = 0.496\nsamples = 10\nvalue = [4.921, 5.845]"] ;
898 -> 916 ;
917 [label="gini = 0.0\nsamples = 1\nvalue = [0.0, 5.845]"] ;
916 -> 917 ;
918 [label="x[6] <= 135.0\ngini = 0.0\nsamples = 9\nvalue = [4.921, 0.0]"] ;
916 -> 918 ;
919 [label="gini = 0.0\nsamples = 3\nvalue = [1.64, 0.0]"] ;
918 -> 919 ;
920 [label="gini = 0.0\nsamples = 6\nvalue = [3.281, 0.0]"] ;
918 -> 920 ;
921 [label="x[4] <= 42.035\ngini = 0.498\nsamples = 1707\nvalue = [861.162, 771.591]"] ;
873 -> 921 ;
922 [label="x[2] <= 0.5\ngini = 0.482\nsamples = 1368\nvalue = [703.145, 479.322]"] ;
921 -> 922 ;
923 [label="x[5] <= 6.15\ngini = 0.47\nsamples = 1283\nvalue = [663.778, 403.332]"] ;
922 -> 923 ;
924 [label="x[1] <= 33.5\ngini = 0.491\nsamples = 731\nvalue = [372.897, 286.424]"] ;
923 -> 924 ;
925 [label="x[0] <= 0.5\ngini = 0.408\nsamples = 306\nvalue = [161.297, 64.299]"] ;
924 -> 925 ;
926 [label="x[1] <= 30.5\ngini = 0.24\nsamples = 201\nvalue = [108.26, 17.536]"] ;
925 -> 926 ;
927 [label="x[1] <= 28.5\ngini = 0.353\nsamples = 111\nvalue = [59.051, 17.536]"] ;
926 -> 927 ;
928 [label="gini = 0.0\nsamples = 40\nvalue = [21.871, 0.0]"] ;
927 -> 928 ;
929 [label="x[4] <= 31.245\ngini = 0.436\nsamples = 71\nvalue = [37.18, 17.536]"] ;
927 -> 929 ;
930 [label="x[4] <= 31.05\ngini = 0.266\nsamples = 3\nvalue = [1.094, 5.845]"] ;
929 -> 930 ;
931 [label="x[5] <= 5.9\ngini = 0.0\nsamples = 2\nvalue = [1.094, 0.0]"] ;
930 -> 931 ;
932 [label="gini = 0.0\nsamples = 1\nvalue = [0.547, 0.0]"] ;
931 -> 932 ;
933 [label="gini = 0.0\nsamples = 1\nvalue = [0.547, 0.0]"] ;
931 -> 933 ;
934 [label="gini = 0.0\nsamples = 1\nvalue = [0.0, 5.845]"] ;
930 -> 934 ;
935 [label="x[6] <= 158.5\ngini = 0.37\nsamples = 68\nvalue = [36.087, 11.691]"] ;
929 -> 935 ;
936 [label="gini = 0.0\nsamples = 42\nvalue = [22.964, 0.0]"] ;
935 -> 936 ;
937 [label="x[6] <= 159.5\ngini = 0.498\nsamples = 26\nvalue = [13.122, 11.691]"] ;
935 -> 937 ;
938 [label="x[4] <= 33.83\ngini = 0.372\nsamples = 9\nvalue = [3.827, 11.691]"] ;
937 -> 938 ;
939 [label="gini = 0.0\nsamples = 3\nvalue = [1.64, 0.0]"] ;
938 -> 939 ;
940 [label="x[4] <= 38.58\ngini = 0.266\nsamples = 6\nvalue = [2.187, 11.691]"] ;
938 -> 940 ;
941 [label="x[5] <= 5.9\ngini = 0.216\nsamples = 5\nvalue = [1.64, 11.691]"] ;
940 -> 941 ;
942 [label="gini = 0.0\nsamples = 1\nvalue = [0.0, 5.845]"] ;
941 -> 942 ;
943 [label="x[4] <= 37.015\ngini = 0.342\nsamples = 4\nvalue = [1.64, 5.845]"] ;
941 -> 943 ;
944 [label="x[1] <= 29.5\ngini = 0.0\nsamples = 3\nvalue = [1.64, 0.0]"] ;
943 -> 944 ;
945 [label="gini = 0.0\nsamples = 2\nvalue = [1.094, 0.0]"] ;
944 -> 945 ;
946 [label="gini = 0.0\nsamples = 1\nvalue = [0.547, 0.0]"] ;
944 -> 946 ;
947 [label="gini = 0.0\nsamples = 1\nvalue = [0.0, 5.845]"] ;
943 -> 947 ;
948 [label="gini = 0.0\nsamples = 1\nvalue = [0.547, 0.0]"] ;
940 -> 948 ;
949 [label="gini = -0.0\nsamples = 17\nvalue = [9.295, 0.0]"] ;
937 -> 949 ;
950 [label="x[4] <= 30.855\ngini = 0.0\nsamples = 90\nvalue = [49.209, 0.0]"] ;
926 -> 950 ;
951 [label="gini = 0.0\nsamples = 1\nvalue = [0.547, 0.0]"] ;
950 -> 951 ;
952 [label="gini = 0.0\nsamples = 89\nvalue = [48.662, 0.0]"] ;
950 -> 952 ;
953 [label="x[5] <= 5.75\ngini = 0.498\nsamples = 105\nvalue = [53.037, 46.763]"] ;
925 -> 953 ;
954 [label="gini = 0.0\nsamples = 24\nvalue = [13.122, 0.0]"] ;
953 -> 954 ;
955 [label="x[4] <= 36.74\ngini = 0.497\nsamples = 81\nvalue = [39.914, 46.763]"] ;
953 -> 955 ;
956 [label="x[4] <= 33.715\ngini = 0.487\nsamples = 63\nvalue = [32.259, 23.382]"] ;
955 -> 956 ;
957 [label="x[4] <= 33.21\ngini = 0.485\nsamples = 34\nvalue = [16.403, 23.382]"] ;
956 -> 957 ;
958 [label="x[4] <= 30.78\ngini = 0.491\nsamples = 30\nvalue = [15.31, 11.691]"] ;
957 -> 958 ;
959 [label="x[4] <= 30.72\ngini = 0.156\nsamples = 2\nvalue = [0.547, 5.845]"] ;
958 -> 959 ;
960 [label="gini = 0.0\nsamples = 1\nvalue = [0.547, 0.0]"] ;
959 -> 960 ;
961 [label="gini = 0.0\nsamples = 1\nvalue = [0.0, 5.845]"] ;
959 -> 961 ;
962 [label="x[6] <= 158.5\ngini = 0.406\nsamples = 28\nvalue = [14.763, 5.845]"] ;
958 -> 962 ;
963 [label="gini = -0.0\nsamples = 22\nvalue = [12.029, 0.0]"] ;
962 -> 963 ;
964 [label="x[6] <= 159.5\ngini = 0.434\nsamples = 6\nvalue = [2.734, 5.845]"] ;
962 -> 964 ;
965 [label="gini = 0.0\nsamples = 1\nvalue = [0.0, 5.845]"] ;
964 -> 965 ;
966 [label="gini = 0.0\nsamples = 5\nvalue = [2.734, 0.0]"] ;
964 -> 966 ;
967 [label="x[6] <= 128.0\ngini = 0.156\nsamples = 4\nvalue = [1.094, 11.691]"] ;
957 -> 967 ;
968 [label="gini = 0.0\nsamples = 1\nvalue = [0.547, 0.0]"] ;
967 -> 968 ;
969 [label="x[1] <= 28.5\ngini = 0.085\nsamples = 3\nvalue = [0.547, 11.691]"] ;
967 -> 969 ;
970 [label="gini = 0.0\nsamples = 1\nvalue = [0.547, 0.0]"] ;
969 -> 970 ;
971 [label="gini = 0.0\nsamples = 2\nvalue = [0.0, 11.691]"] ;
969 -> 971 ;
972 [label="gini = 0.0\nsamples = 29\nvalue = [15.856, 0.0]"] ;
956 -> 972 ;
973 [label="x[4] <= 37.605\ngini = 0.372\nsamples = 18\nvalue = [7.655, 23.382]"] ;
955 -> 973 ;
974 [label="x[1] <= 27.5\ngini = 0.085\nsamples = 6\nvalue = [1.094, 23.382]"] ;
973 -> 974 ;
975 [label="gini = 0.0\nsamples = 1\nvalue = [0.547, 0.0]"] ;
974 -> 975 ;
976 [label="x[4] <= 37.24\ngini = 0.045\nsamples = 5\nvalue = [0.547, 23.382]"] ;
974 -> 976 ;
977 [label="gini = 0.0\nsamples = 3\nvalue = [0.0, 17.536]"] ;
976 -> 977 ;
978 [label="x[4] <= 37.4\ngini = 0.156\nsamples = 2\nvalue = [0.547, 5.845]"] ;
976 -> 978 ;
979 [label="gini = 0.0\nsamples = 1\nvalue = [0.547, 0.0]"] ;
978 -> 979 ;
980 [label="gini = 0.0\nsamples = 1\nvalue = [0.0, 5.845]"] ;
978 -> 980 ;
981 [label="gini = -0.0\nsamples = 12\nvalue = [6.561, 0.0]"] ;
973 -> 981 ;
982 [label="x[4] <= 32.465\ngini = 0.5\nsamples = 425\nvalue = [211.6, 222.125]"] ;
924 -> 982 ;
983 [label="x[4] <= 32.055\ngini = 0.445\nsamples = 134\nvalue = [69.986, 35.072]"] ;
982 -> 983 ;
984 [label="x[4] <= 32.02\ngini = 0.471\nsamples = 111\nvalue = [57.411, 35.072]"] ;
983 -> 984 ;
985 [label="x[5] <= 5.75\ngini = 0.448\nsamples = 109\nvalue = [56.864, 29.227]"] ;
984 -> 985 ;
986 [label="gini = 0.0\nsamples = 27\nvalue = [14.763, 0.0]"] ;
985 -> 986 ;
987 [label="x[4] <= 31.865\ngini = 0.484\nsamples = 82\nvalue = [42.101, 29.227]"] ;
985 -> 987 ;
988 [label="x[4] <= 31.835\ngini = 0.495\nsamples = 70\nvalue = [35.54, 29.227]"] ;
987 -> 988 ;
989 [label="x[4] <= 31.525\ngini = 0.479\nsamples = 69\nvalue = [35.54, 23.382]"] ;
988 -> 989 ;
990 [label="x[4] <= 31.515\ngini = 0.498\nsamples = 52\nvalue = [26.245, 23.382]"] ;
989 -> 990 ;
991 [label="x[5] <= 5.9\ngini = 0.482\nsamples = 50\nvalue = [25.698, 17.536]"] ;
990 -> 991 ;
992 [label="gini = 0.0\nsamples = 18\nvalue = [9.842, 0.0]"] ;
991 -> 992 ;
993 [label="x[4] <= 31.235\ngini = 0.499\nsamples = 32\nvalue = [15.856, 17.536]"] ;
991 -> 993 ;
994 [label="x[4] <= 30.77\ngini = 0.467\nsamples = 22\nvalue = [10.389, 17.536]"] ;
993 -> 994 ;
995 [label="gini = 0.0\nsamples = 6\nvalue = [3.281, 0.0]"] ;
994 -> 995 ;
996 [label="x[1] <= 35.5\ngini = 0.41\nsamples = 16\nvalue = [7.108, 17.536]"] ;
994 -> 996 ;
997 [label="gini = 0.0\nsamples = 4\nvalue = [2.187, 0.0]"] ;
996 -> 997 ;
998 [label="x[5] <= 6.05\ngini = 0.342\nsamples = 12\nvalue = [4.921, 17.536]"] ;
996 -> 998 ;
999 [label="gini = 0.0\nsamples = 2\nvalue = [0.0, 11.691]"] ;
998 -> 999 ;
1000 [label="x[4] <= 30.785\ngini = 0.496\nsamples = 10\nvalue = [4.921, 5.845]"] ;
998 -> 1000 ;
1001 [label="gini = 0.0\nsamples = 1\nvalue = [0.0, 5.845]"] ;
1000 -> 1001 ;
1002 [label="x[1] <= 37.5\ngini = 0.0\nsamples = 9\nvalue = [4.921, 0.0]"] ;
1000 -> 1002 ;
1003 [label="gini = 0.0\nsamples = 2\nvalue = [1.094, 0.0]"] ;
1002 -> 1003 ;
1004 [label="gini = 0.0\nsamples = 7\nvalue = [3.827, 0.0]"] ;
1002 -> 1004 ;
1005 [label="gini = -0.0\nsamples = 10\nvalue = [5.468, 0.0]"] ;
993 -> 1005 ;
1006 [label="x[6] <= 170.0\ngini = 0.156\nsamples = 2\nvalue = [0.547, 5.845]"] ;
990 -> 1006 ;
1007 [label="gini = 0.0\nsamples = 1\nvalue = [0.547, 0.0]"] ;
1006 -> 1007 ;
1008 [label="gini = 0.0\nsamples = 1\nvalue = [0.0, 5.845]"] ;
1006 -> 1008 ;
1009 [label="gini = 0.0\nsamples = 17\nvalue = [9.295, 0.0]"] ;
989 -> 1009 ;
1010 [label="gini = 0.0\nsamples = 1\nvalue = [0.0, 5.845]"] ;
988 -> 1010 ;
1011 [label="x[1] <= 34.5\ngini = 0.0\nsamples = 12\nvalue = [6.561, 0.0]"] ;
987 -> 1011 ;
1012 [label="gini = 0.0\nsamples = 1\nvalue = [0.547, 0.0]"] ;
1011 -> 1012 ;
1013 [label="gini = 0.0\nsamples = 11\nvalue = [6.014, 0.0]"] ;
1011 -> 1013 ;
1014 [label="x[6] <= 179.0\ngini = 0.156\nsamples = 2\nvalue = [0.547, 5.845]"] ;
984 -> 1014 ;
1015 [label="gini = 0.0\nsamples = 1\nvalue = [0.547, 0.0]"] ;
1014 -> 1015 ;
1016 [label="gini = 0.0\nsamples = 1\nvalue = [0.0, 5.845]"] ;
1014 -> 1016 ;
1017 [label="x[0] <= 0.5\ngini = 0.0\nsamples = 23\nvalue = [12.576, 0.0]"] ;
983 -> 1017 ;
1018 [label="gini = 0.0\nsamples = 12\nvalue = [6.561, 0.0]"] ;
1017 -> 1018 ;
1019 [label="gini = 0.0\nsamples = 11\nvalue = [6.014, 0.0]"] ;
1017 -> 1019 ;
1020 [label="x[4] <= 32.87\ngini = 0.49\nsamples = 291\nvalue = [141.613, 187.052]"] ;
982 -> 1020 ;
1021 [label="x[6] <= 156.5\ngini = 0.266\nsamples = 21\nvalue = [7.655, 40.918]"] ;
1020 -> 1021 ;
1022 [label="x[4] <= 32.76\ngini = 0.13\nsamples = 9\nvalue = [2.187, 29.227]"] ;
1021 -> 1022 ;
1023 [label="x[4] <= 32.645\ngini = 0.266\nsamples = 6\nvalue = [2.187, 11.691]"] ;
1022 -> 1023 ;
1024 [label="x[5] <= 5.75\ngini = 0.156\nsamples = 4\nvalue = [1.094, 11.691]"] ;
1023 -> 1024 ;
1025 [label="gini = 0.0\nsamples = 1\nvalue = [0.0, 5.845]"] ;
1024 -> 1025 ;
1026 [label="x[4] <= 32.525\ngini = 0.266\nsamples = 3\nvalue = [1.094, 5.845]"] ;
1024 -> 1026 ;
1027 [label="gini = 0.0\nsamples = 1\nvalue = [0.0, 5.845]"] ;
1026 -> 1027 ;
1028 [label="gini = -0.0\nsamples = 2\nvalue = [1.094, 0.0]"] ;
1026 -> 1028 ;
1029 [label="x[4] <= 32.73\ngini = 0.0\nsamples = 2\nvalue = [1.094, 0.0]"] ;
1023 -> 1029 ;
1030 [label="gini = 0.0\nsamples = 1\nvalue = [0.547, 0.0]"] ;
1029 -> 1030 ;
1031 [label="gini = 0.0\nsamples = 1\nvalue = [0.547, 0.0]"] ;
1029 -> 1031 ;
1032 [label="gini = 0.0\nsamples = 3\nvalue = [0.0, 17.536]"] ;
1022 -> 1032 ;
1033 [label="x[1] <= 37.5\ngini = 0.434\nsamples = 12\nvalue = [5.468, 11.691]"] ;
1021 -> 1033 ;
1034 [label="gini = 0.0\nsamples = 5\nvalue = [2.734, 0.0]"] ;
1033 -> 1034 ;
1035 [label="x[5] <= 5.85\ngini = 0.307\nsamples = 7\nvalue = [2.734, 11.691]"] ;
1033 -> 1035 ;
1036 [label="gini = 0.0\nsamples = 3\nvalue = [1.64, 0.0]"] ;
1035 -> 1036 ;
1037 [label="x[6] <= 159.0\ngini = 0.156\nsamples = 4\nvalue = [1.094, 11.691]"] ;
1035 -> 1037 ;
1038 [label="gini = 0.0\nsamples = 1\nvalue = [0.547, 0.0]"] ;
1037 -> 1038 ;
1039 [label="x[5] <= 6.05\ngini = 0.085\nsamples = 3\nvalue = [0.547, 11.691]"] ;
1037 -> 1039 ;
1040 [label="gini = 0.0\nsamples = 1\nvalue = [0.0, 5.845]"] ;
1039 -> 1040 ;
1041 [label="x[4] <= 32.73\ngini = 0.156\nsamples = 2\nvalue = [0.547, 5.845]"] ;
1039 -> 1041 ;
1042 [label="gini = 0.0\nsamples = 1\nvalue = [0.547, 0.0]"] ;
1041 -> 1042 ;
1043 [label="gini = 0.0\nsamples = 1\nvalue = [0.0, 5.845]"] ;
1041 -> 1043 ;
1044 [label="x[4] <= 40.675\ngini = 0.499\nsamples = 270\nvalue = [133.958, 146.135]"] ;
1020 -> 1044 ;
1045 [label="x[4] <= 34.81\ngini = 0.497\nsamples = 252\nvalue = [124.117, 146.135]"] ;
1044 -> 1045 ;
1046 [label="x[1] <= 40.5\ngini = 0.47\nsamples = 93\nvalue = [48.116, 29.227]"] ;
1045 -> 1046 ;
1047 [label="x[4] <= 34.275\ngini = 0.496\nsamples = 69\nvalue = [34.993, 29.227]"] ;
1046 -> 1047 ;
1048 [label="x[5] <= 5.75\ngini = 0.498\nsamples = 52\nvalue = [25.698, 29.227]"] ;
1047 -> 1048 ;
1049 [label="x[1] <= 35.5\ngini = 0.362\nsamples = 13\nvalue = [5.468, 17.536]"] ;
1048 -> 1049 ;
1050 [label="x[6] <= 150.0\ngini = 0.085\nsamples = 3\nvalue = [0.547, 11.691]"] ;
1049 -> 1050 ;
1051 [label="gini = 0.0\nsamples = 1\nvalue = [0.547, 0.0]"] ;
1050 -> 1051 ;
1052 [label="gini = 0.0\nsamples = 2\nvalue = [0.0, 11.691]"] ;
1050 -> 1052 ;
1053 [label="x[6] <= 137.5\ngini = 0.496\nsamples = 10\nvalue = [4.921, 5.845]"] ;
1049 -> 1053 ;
1054 [label="x[1] <= 38.5\ngini = 0.156\nsamples = 2\nvalue = [0.547, 5.845]"] ;
1053 -> 1054 ;
1055 [label="gini = 0.0\nsamples = 1\nvalue = [0.547, 0.0]"] ;
1054 -> 1055 ;
1056 [label="gini = 0.0\nsamples = 1\nvalue = [0.0, 5.845]"] ;
1054 -> 1056 ;
1057 [label="x[0] <= 0.5\ngini = 0.0\nsamples = 8\nvalue = [4.374, 0.0]"] ;
1053 -> 1057 ;
1058 [label="gini = 0.0\nsamples = 4\nvalue = [2.187, 0.0]"] ;
1057 -> 1058 ;
1059 [label="gini = 0.0\nsamples = 4\nvalue = [2.187, 0.0]"] ;
1057 -> 1059 ;
1060 [label="x[5] <= 5.9\ngini = 0.464\nsamples = 39\nvalue = [20.23, 11.691]"] ;
1048 -> 1060 ;
1061 [label="gini = 0.0\nsamples = 16\nvalue = [8.748, 0.0]"] ;
1060 -> 1061 ;
1062 [label="x[1] <= 36.5\ngini = 0.5\nsamples = 23\nvalue = [11.482, 11.691]"] ;
1060 -> 1062 ;
1063 [label="gini = 0.0\nsamples = 10\nvalue = [5.468, 0.0]"] ;
1062 -> 1063 ;
1064 [label="x[4] <= 33.25\ngini = 0.449\nsamples = 13\nvalue = [6.014, 11.691]"] ;
1062 -> 1064 ;
1065 [label="gini = 0.0\nsamples = 5\nvalue = [2.734, 0.0]"] ;
1064 -> 1065 ;
1066 [label="x[6] <= 135.0\ngini = 0.342\nsamples = 8\nvalue = [3.281, 11.691]"] ;
1064 -> 1066 ;
1067 [label="gini = 0.0\nsamples = 3\nvalue = [1.64, 0.0]"] ;
1066 -> 1067 ;
1068 [label="x[6] <= 180.0\ngini = 0.216\nsamples = 5\nvalue = [1.64, 11.691]"] ;
1066 -> 1068 ;
1069 [label="x[6] <= 149.5\ngini = 0.085\nsamples = 3\nvalue = [0.547, 11.691]"] ;
1068 -> 1069 ;
1070 [label="gini = 0.0\nsamples = 1\nvalue = [0.0, 5.845]"] ;
1069 -> 1070 ;
1071 [label="x[0] <= 0.5\ngini = 0.156\nsamples = 2\nvalue = [0.547, 5.845]"] ;
1069 -> 1071 ;
1072 [label="gini = 0.0\nsamples = 1\nvalue = [0.547, 0.0]"] ;
1071 -> 1072 ;
1073 [label="gini = 0.0\nsamples = 1\nvalue = [0.0, 5.845]"] ;
1071 -> 1073 ;
1074 [label="x[4] <= 33.685\ngini = 0.0\nsamples = 2\nvalue = [1.094, 0.0]"] ;
1068 -> 1074 ;
1075 [label="gini = 0.0\nsamples = 1\nvalue = [0.547, 0.0]"] ;
1074 -> 1075 ;
1076 [label="gini = 0.0\nsamples = 1\nvalue = [0.547, 0.0]"] ;
1074 -> 1076 ;
1077 [label="gini = 0.0\nsamples = 17\nvalue = [9.295, 0.0]"] ;
1047 -> 1077 ;
1078 [label="x[1] <= 41.5\ngini = 0.0\nsamples = 24\nvalue = [13.122, 0.0]"] ;
1046 -> 1078 ;
1079 [label="gini = 0.0\nsamples = 13\nvalue = [7.108, 0.0]"] ;
1078 -> 1079 ;
1080 [label="gini = 0.0\nsamples = 11\nvalue = [6.014, 0.0]"] ;
1078 -> 1080 ;
1081 [label="x[4] <= 40.535\ngini = 0.478\nsamples = 159\nvalue = [76.001, 116.908]"] ;
1045 -> 1081 ;
1082 [label="x[1] <= 41.5\ngini = 0.487\nsamples = 157\nvalue = [76.001, 105.217]"] ;
1081 -> 1082 ;
1083 [label="x[4] <= 39.93\ngini = 0.474\nsamples = 139\nvalue = [66.159, 105.217]"] ;
1082 -> 1083 ;
1084 [label="x[6] <= 158.5\ngini = 0.465\nsamples = 130\nvalue = [61.238, 105.217]"] ;
1083 -> 1084 ;
1085 [label="x[4] <= 36.725\ngini = 0.495\nsamples = 87\nvalue = [42.648, 52.609]"] ;
1084 -> 1085 ;
1086 [label="x[4] <= 35.965\ngini = 0.402\nsamples = 41\nvalue = [18.043, 46.763]"] ;
1085 -> 1086 ;
1087 [label="x[1] <= 38.5\ngini = 0.499\nsamples = 25\nvalue = [12.576, 11.691]"] ;
1086 -> 1087 ;
1088 [label="x[6] <= 128.0\ngini = 0.0\nsamples = 13\nvalue = [7.108, 0.0]"] ;
1087 -> 1088 ;
1089 [label="gini = 0.0\nsamples = 3\nvalue = [1.64, 0.0]"] ;
1088 -> 1089 ;
1090 [label="gini = 0.0\nsamples = 10\nvalue = [5.468, 0.0]"] ;
1088 -> 1090 ;
1091 [label="x[4] <= 35.38\ngini = 0.434\nsamples = 12\nvalue = [5.468, 11.691]"] ;
1087 -> 1091 ;
1092 [label="x[1] <= 40.5\ngini = 0.307\nsamples = 7\nvalue = [2.734, 11.691]"] ;
1091 -> 1092 ;
1093 [label="x[6] <= 135.0\ngini = 0.156\nsamples = 4\nvalue = [1.094, 11.691]"] ;
1092 -> 1093 ;
1094 [label="gini = 0.0\nsamples = 1\nvalue = [0.547, 0.0]"] ;
1093 -> 1094 ;
1095 [label="x[3] <= 0.5\ngini = 0.085\nsamples = 3\nvalue = [0.547, 11.691]"] ;
1093 -> 1095 ;
1096 [label="gini = 0.0\nsamples = 2\nvalue = [0.0, 11.691]"] ;
1095 -> 1096 ;
1097 [label="gini = 0.0\nsamples = 1\nvalue = [0.547, 0.0]"] ;
1095 -> 1097 ;
1098 [label="x[4] <= 34.94\ngini = 0.0\nsamples = 3\nvalue = [1.64, 0.0]"] ;
1092 -> 1098 ;
1099 [label="gini = 0.0\nsamples = 1\nvalue = [0.547, 0.0]"] ;
1098 -> 1099 ;
1100 [label="gini = 0.0\nsamples = 2\nvalue = [1.094, 0.0]"] ;
1098 -> 1100 ;
1101 [label="gini = -0.0\nsamples = 5\nvalue = [2.734, 0.0]"] ;
1091 -> 1101 ;
1102 [label="x[0] <= 0.5\ngini = 0.233\nsamples = 16\nvalue = [5.468, 35.072]"] ;
1086 -> 1102 ;
1103 [label="x[6] <= 156.5\ngini = 0.111\nsamples = 10\nvalue = [2.187, 35.072]"] ;
1102 -> 1103 ;
1104 [label="x[1] <= 38.0\ngini = 0.059\nsamples = 8\nvalue = [1.094, 35.072]"] ;
1103 -> 1104 ;
1105 [label="x[4] <= 36.015\ngini = 0.111\nsamples = 5\nvalue = [1.094, 17.536]"] ;
1104 -> 1105 ;
1106 [label="gini = 0.0\nsamples = 1\nvalue = [0.547, 0.0]"] ;
1105 -> 1106 ;
1107 [label="x[4] <= 36.14\ngini = 0.059\nsamples = 4\nvalue = [0.547, 17.536]"] ;
1105 -> 1107 ;
1108 [label="gini = 0.0\nsamples = 2\nvalue = [0.0, 11.691]"] ;
1107 -> 1108 ;
1109 [label="x[4] <= 36.44\ngini = 0.156\nsamples = 2\nvalue = [0.547, 5.845]"] ;
1107 -> 1109 ;
1110 [label="gini = 0.0\nsamples = 1\nvalue = [0.547, 0.0]"] ;
1109 -> 1110 ;
1111 [label="gini = 0.0\nsamples = 1\nvalue = [0.0, 5.845]"] ;
1109 -> 1111 ;
1112 [label="gini = 0.0\nsamples = 3\nvalue = [0.0, 17.536]"] ;
1104 -> 1112 ;
1113 [label="gini = -0.0\nsamples = 2\nvalue = [1.094, 0.0]"] ;
1103 -> 1113 ;
1114 [label="gini = -0.0\nsamples = 6\nvalue = [3.281, 0.0]"] ;
1102 -> 1114 ;
1115 [label="x[4] <= 38.765\ngini = 0.31\nsamples = 46\nvalue = [24.605, 5.845]"] ;
1085 -> 1115 ;
1116 [label="gini = -0.0\nsamples = 34\nvalue = [18.59, 0.0]"] ;
1115 -> 1116 ;
1117 [label="x[4] <= 38.835\ngini = 0.5\nsamples = 12\nvalue = [6.014, 5.845]"] ;
1115 -> 1117 ;
1118 [label="gini = 0.0\nsamples = 1\nvalue = [0.0, 5.845]"] ;
1117 -> 1118 ;
1119 [label="gini = -0.0\nsamples = 11\nvalue = [6.014, 0.0]"] ;
1117 -> 1119 ;
1120 [label="x[4] <= 38.04\ngini = 0.386\nsamples = 43\nvalue = [18.59, 52.609]"] ;
1084 -> 1120 ;
1121 [label="x[6] <= 159.5\ngini = 0.495\nsamples = 29\nvalue = [14.216, 17.536]"] ;
1120 -> 1121 ;
1122 [label="x[4] <= 37.655\ngini = 0.362\nsamples = 13\nvalue = [5.468, 17.536]"] ;
1121 -> 1122 ;
1123 [label="x[1] <= 37.0\ngini = 0.294\nsamples = 10\nvalue = [3.827, 17.536]"] ;
1122 -> 1123 ;
1124 [label="gini = 0.0\nsamples = 2\nvalue = [1.094, 0.0]"] ;
1123 -> 1124 ;
1125 [label="x[4] <= 35.13\ngini = 0.233\nsamples = 8\nvalue = [2.734, 17.536]"] ;
1123 -> 1125 ;
1126 [label="gini = 0.0\nsamples = 2\nvalue = [0.0, 11.691]"] ;
1125 -> 1126 ;
1127 [label="x[4] <= 37.26\ngini = 0.434\nsamples = 6\nvalue = [2.734, 5.845]"] ;
1125 -> 1127 ;
1128 [label="gini = 0.0\nsamples = 5\nvalue = [2.734, 0.0]"] ;
1127 -> 1128 ;
1129 [label="gini = 0.0\nsamples = 1\nvalue = [0.0, 5.845]"] ;
1127 -> 1129 ;
1130 [label="gini = -0.0\nsamples = 3\nvalue = [1.64, 0.0]"] ;
1122 -> 1130 ;
1131 [label="gini = -0.0\nsamples = 16\nvalue = [8.748, 0.0]"] ;
1121 -> 1131 ;
1132 [label="x[4] <= 38.73\ngini = 0.197\nsamples = 14\nvalue = [4.374, 35.072]"] ;
1120 -> 1132 ;
1133 [label="x[6] <= 179.5\ngini = 0.085\nsamples = 6\nvalue = [1.094, 23.382]"] ;
1132 -> 1133 ;
1134 [label="x[5] <= 5.85\ngini = 0.045\nsamples = 5\nvalue = [0.547, 23.382]"] ;
1133 -> 1134 ;
1135 [label="x[4] <= 38.205\ngini = 0.156\nsamples = 2\nvalue = [0.547, 5.845]"] ;
1134 -> 1135 ;
1136 [label="gini = 0.0\nsamples = 1\nvalue = [0.0, 5.845]"] ;
1135 -> 1136 ;
1137 [label="gini = 0.0\nsamples = 1\nvalue = [0.547, 0.0]"] ;
1135 -> 1137 ;
1138 [label="gini = 0.0\nsamples = 3\nvalue = [0.0, 17.536]"] ;
1134 -> 1138 ;
1139 [label="gini = -0.0\nsamples = 1\nvalue = [0.547, 0.0]"] ;
1133 -> 1139 ;
1140 [label="x[4] <= 39.595\ngini = 0.342\nsamples = 8\nvalue = [3.281, 11.691]"] ;
1132 -> 1140 ;
1141 [label="gini = 0.0\nsamples = 5\nvalue = [2.734, 0.0]"] ;
1140 -> 1141 ;
1142 [label="x[6] <= 159.5\ngini = 0.085\nsamples = 3\nvalue = [0.547, 11.691]"] ;
1140 -> 1142 ;
1143 [label="gini = 0.0\nsamples = 1\nvalue = [0.547, 0.0]"] ;
1142 -> 1143 ;
1144 [label="gini = 0.0\nsamples = 2\nvalue = [0.0, 11.691]"] ;
1142 -> 1144 ;
1145 [label="gini = -0.0\nsamples = 9\nvalue = [4.921, 0.0]"] ;
1083 -> 1145 ;
1146 [label="gini = -0.0\nsamples = 18\nvalue = [9.842, 0.0]"] ;
1082 -> 1146 ;
1147 [label="x[6] <= 137.5\ngini = 0.0\nsamples = 2\nvalue = [0.0, 11.691]"] ;
1081 -> 1147 ;
1148 [label="gini = 0.0\nsamples = 1\nvalue = [0.0, 5.845]"] ;
1147 -> 1148 ;
1149 [label="gini = 0.0\nsamples = 1\nvalue = [0.0, 5.845]"] ;
1147 -> 1149 ;
1150 [label="x[5] <= 5.75\ngini = 0.0\nsamples = 18\nvalue = [9.842, 0.0]"] ;
1044 -> 1150 ;
1151 [label="gini = 0.0\nsamples = 3\nvalue = [1.64, 0.0]"] ;
1150 -> 1151 ;
1152 [label="gini = 0.0\nsamples = 15\nvalue = [8.202, 0.0]"] ;
1150 -> 1152 ;
1153 [label="x[4] <= 38.785\ngini = 0.409\nsamples = 552\nvalue = [290.881, 116.908]"] ;
923 -> 1153 ;
1154 [label="x[4] <= 30.735\ngini = 0.353\nsamples = 482\nvalue = [256.435, 75.99]"] ;
1153 -> 1154 ;
1155 [label="x[1] <= 33.5\ngini = 0.396\nsamples = 10\nvalue = [4.374, 11.691]"] ;
1154 -> 1155 ;
1156 [label="gini = 0.0\nsamples = 4\nvalue = [2.187, 0.0]"] ;
1155 -> 1156 ;
1157 [label="x[5] <= 6.35\ngini = 0.266\nsamples = 6\nvalue = [2.187, 11.691]"] ;
1155 -> 1157 ;
1158 [label="gini = 0.0\nsamples = 1\nvalue = [0.547, 0.0]"] ;
1157 -> 1158 ;
1159 [label="x[6] <= 179.5\ngini = 0.216\nsamples = 5\nvalue = [1.64, 11.691]"] ;
1157 -> 1159 ;
1160 [label="x[1] <= 35.5\ngini = 0.342\nsamples = 4\nvalue = [1.64, 5.845]"] ;
1159 -> 1160 ;
1161 [label="gini = 0.0\nsamples = 1\nvalue = [0.0, 5.845]"] ;
1160 -> 1161 ;
1162 [label="x[6] <= 135.5\ngini = 0.0\nsamples = 3\nvalue = [1.64, 0.0]"] ;
1160 -> 1162 ;
1163 [label="gini = 0.0\nsamples = 1\nvalue = [0.547, 0.0]"] ;
1162 -> 1163 ;
1164 [label="gini = 0.0\nsamples = 2\nvalue = [1.094, 0.0]"] ;
1162 -> 1164 ;
1165 [label="gini = 0.0\nsamples = 1\nvalue = [0.0, 5.845]"] ;
1159 -> 1165 ;
